{"learner":{"attributes":{"best_iteration":"299","best_score":"0.09358762514150452"},"feature_names":["Type_enc","Air_temperature_K","Process_temperature_K","Rotational_speed_rpm","Torque_Nm","Tool_wear_min","Temp_Diff","Stress_Index","Torque_Speed_Ratio","Torque_roll_mean5","Torque_roll_std5","Wear_diff"],"feature_types":["int","float","float","int","float","int","float","float","float","float","float","float"],"gradient_booster":{"model":{"gbtree_model_param":{"num_parallel_tree":"1","num_trees":"1500"},"iteration_indptr":[0,5,10,15,20,25,30,35,40,45,50,55,60,65,70,75,80,85,90,95,100,105,110,115,120,125,130,135,140,145,150,155,160,165,170,175,180,185,190,195,200,205,210,215,220,225,230,235,240,245,250,255,260,265,270,275,280,285,290,295,300,305,310,315,320,325,330,335,340,345,350,355,360,365,370,375,380,385,390,395,400,405,410,415,420,425,430,435,440,445,450,455,460,465,470,475,480,485,490,495,500,505,510,515,520,525,530,535,540,545,550,555,560,565,570,575,580,585,590,595,600,605,610,615,620,625,630,635,640,645,650,655,660,665,670,675,680,685,690,695,700,705,710,715,720,725,730,735,740,745,750,755,760,765,770,775,780,785,790,795,800,805,810,815,820,825,830,835,840,845,850,855,860,865,870,875,880,885,890,895,900,905,910,915,920,925,930,935,940,945,950,955,960,965,970,975,980,985,990,995,1000,1005,1010,1015,1020,1025,1030,1035,1040,1045,1050,1055,1060,1065,1070,1075,1080,1085,1090,1095,1100,1105,1110,1115,1120,1125,1130,1135,1140,1145,1150,1155,1160,1165,1170,1175,1180,1185,1190,1195,1200,1205,1210,1215,1220,1225,1230,1235,1240,1245,1250,1255,1260,1265,1270,1275,1280,1285,1290,1295,1300,1305,1310,1315,1320,1325,1330,1335,1340,1345,1350,1355,1360,1365,1370,1375,1380,1385,1390,1395,1400,1405,1410,1415,1420,1425,1430,1435,1440,1445,1450,1455,1460,1465,1470,1475,1480,1485,1490,1495,1500],"tree_info":[0,1,2,3,4,0,1,2,3,4,0,1,2,3,4,0,1,2,3,4,0,1,2,3,4,0,1,2,3,4,0,1,2,3,4,0,1,2,3,4,0,1,2,3,4,0,1,2,3,4,0,1,2,3,4,0,1,2,3,4,0,1,2,3,4,0,1,2,3,4,0,1,2,3,4,0,1,2,3,4,0,1,2,3,4,0,1,2,3,4,0,1,2,3,4,0,1,2,3,4,0,1,2,3,4,0,1,2,3,4,0,1,2,3,4,0,1,2,3,4,0,1,2,3,4,0,1,2,3,4,0,1,2,3,4,0,1,2,3,4,0,1,2,3,4,0,1,2,3,4,0,1,2,3,4,0,1,2,3,4,0,1,2,3,4,0,1,2,3,4,0,1,2,3,4,0,1,2,3,4,0,1,2,3,4,0,1,2,3,4,0,1,2,3,4,0,1,2,3,4,0,1,2,3,4,0,1,2,3,4,0,1,2,3,4,0,1,2,3,4,0,1,2,3,4,0,1,2,3,4,0,1,2,3,4,0,1,2,3,4,0,1,2,3,4,0,1,2,3,4,0,1,2,3,4,0,1,2,3,4,0,1,2,3,4,0,1,2,3,4,0,1,2,3,4,0,1,2,3,4,0,1,2,3,4,0,1,2,3,4,0,1,2,3,4,0,1,2,3,4,0,1,2,3,4,0,1,2,3,4,0,1,2,3,4,0,1,2,3,4,0,1,2,3,4,0,1,2,3,4,0,1,2,3,4,0,1,2,3,4,0,1,2,3,4,0,1,2,3,4,0,1,2,3,4,0,1,2,3,4,0,1,2,3,4,0,1,2,3,4,0,1,2,3,4,0,1,2,3,4,0,1,2,3,4,0,1,2,3,4,0,1,2,3,4,0,1,2,3,4,0,1,2,3,4,0,1,2,3,4,0,1,2,3,4,0,1,2,3,4,0,1,2,3,4,0,1,2,3,4,0,1,2,3,4,0,1,2,3,4,0,1,2,3,4,0,1,2,3,4,0,1,2,3,4,0,1,2,3,4,0,1,2,3,4,0,1,2,3,4,0,1,2,3,4,0,1,2,3,4,0,1,2,3,4,0,1,2,3,4,0,1,2,3,4,0,1,2,3,4,0,1,2,3,4,0,1,2,3,4,0,1,2,3,4,0,1,2,3,4,0,1,2,3,4,0,1,2,3,4,0,1,2,3,4,0,1,2,3,4,0,1,2,3,4,0,1,2,3,4,0,1,2,3,4,0,1,2,3,4,0,1,2,3,4,0,1,2,3,4,0,1,2,3,4,0,1,2,3,4,0,1,2,3,4,0,1,2,3,4,0,1,2,3,4,0,1,2,3,4,0,1,2,3,4,0,1,2,3,4,0,1,2,3,4,0,1,2,3,4,0,1,2,3,4,0,1,2,3,4,0,1,2,3,4,0,1,2,3,4,0,1,2,3,4,0,1,2,3,4,0,1,2,3,4,0,1,2,3,4,0,1,2,3,4,0,1,2,3,4,0,1,2,3,4,0,1,2,3,4,0,1,2,3,4,0,1,2,3,4,0,1,2,3,4,0,1,2,3,4,0,1,2,3,4,0,1,2,3,4,0,1,2,3,4,0,1,2,3,4,0,1,2,3,4,0,1,2,3,4,0,1,2,3,4,0,1,2,3,4,0,1,2,3,4,0,1,2,3,4,0,1,2,3,4,0,1,2,3,4,0,1,2,3,4,0,1,2,3,4,0,1,2,3,4,0,1,2,3,4,0,1,2,3,4,0,1,2,3,4,0,1,2,3,4,0,1,2,3,4,0,1,2,3,4,0,1,2,3,4,0,1,2,3,4,0,1,2,3,4,0,1,2,3,4,0,1,2,3,4,0,1,2,3,4,0,1,2,3,4,0,1,2,3,4,0,1,2,3,4,0,1,2,3,4,0,1,2,3,4,0,1,2,3,4,0,1,2,3,4,0,1,2,3,4,0,1,2,3,4,0,1,2,3,4,0,1,2,3,4,0,1,2,3,4,0,1,2,3,4,0,1,2,3,4,0,1,2,3,4,0,1,2,3,4,0,1,2,3,4,0,1,2,3,4,0,1,2,3,4,0,1,2,3,4,0,1,2,3,4,0,1,2,3,4,0,1,2,3,4,0,1,2,3,4,0,1,2,3,4,0,1,2,3,4,0,1,2,3,4,0,1,2,3,4,0,1,2,3,4,0,1,2,3,4,0,1,2,3,4,0,1,2,3,4,0,1,2,3,4,0,1,2,3,4,0,1,2,3,4,0,1,2,3,4,0,1,2,3,4,0,1,2,3,4,0,1,2,3,4,0,1,2,3,4,0,1,2,3,4,0,1,2,3,4,0,1,2,3,4,0,1,2,3,4,0,1,2,3,4,0,1,2,3,4,0,1,2,3,4,0,1,2,3,4,0,1,2,3,4,0,1,2,3,4,0,1,2,3,4,0,1,2,3,4,0,1,2,3,4,0,1,2,3,4,0,1,2,3,4,0,1,2,3,4,0,1,2,3,4,0,1,2,3,4,0,1,2,3,4,0,1,2,3,4,0,1,2,3,4,0,1,2,3,4,0,1,2,3,4,0,1,2,3,4,0,1,2,3,4,0,1,2,3,4,0,1,2,3,4,0,1,2,3,4,0,1,2,3,4,0,1,2,3,4,0,1,2,3,4,0,1,2,3,4,0,1,2,3,4,0,1,2,3,4,0,1,2,3,4,0,1,2,3,4,0,1,2,3,4,0,1,2,3,4,0,1,2,3,4,0,1,2,3,4,0,1,2,3,4,0,1,2,3,4,0,1,2,3,4,0,1,2,3,4,0,1,2,3,4,0,1,2,3,4,0,1,2,3,4,0,1,2,3,4,0,1,2,3,4,0,1,2,3,4,0,1,2,3,4,0,1,2,3,4,0,1,2,3,4,0,1,2,3,4,0,1,2,3,4,0,1,2,3,4,0,1,2,3,4,0,1,2,3,4,0,1,2,3,4,0,1,2,3,4,0,1,2,3,4,0,1,2,3,4,0,1,2,3,4,0,1,2,3,4,0,1,2,3,4,0,1,2,3,4,0,1,2,3,4,0,1,2,3,4,0,1,2,3,4,0,1,2,3,4,0,1,2,3,4,0,1,2,3,4,0,1,2,3,4,0,1,2,3,4,0,1,2,3,4,0,1,2,3,4,0,1,2,3,4,0,1,2,3,4,0,1,2,3,4,0,1,2,3,4,0,1,2,3,4,0,1,2,3,4,0,1,2,3,4,0,1,2,3,4,0,1,2,3,4,0,1,2,3,4,0,1,2,3,4,0,1,2,3,4,0,1,2,3,4,0,1,2,3,4,0,1,2,3,4,0,1,2,3,4,0,1,2,3,4],"trees":[{"base_weights":[-6.0628253E-1,-1.2624445E-2,3.0234782E-2],"categories":[],"categories_nodes":[],"categories_segments":[],"categories_sizes":[],"default_left":[0,0,0],"id":0,"left_children":[1,-1,-1],"loss_changes":[7.7467224E1,0E0,0E0],"parents":[2147483647,0,0],"right_children":[2,-1,-1],"split_conditions":[1.5129907E1,-1.2624445E-2,3.0234782E-2],"split_indices":[6,0,0],"split_type":[0,0,0],"sum_hessian":[2.5657603E3,2.5526401E3,1.3120001E1],"tree_param":{"num_deleted":"0","num_feature":"12","num_nodes":"3","size_leaf_vector":"1"}},{"base_weights":[1.8119241E0,4.4912156E-2,1.3062388E0,1.4678395E0,5.8985496E-1,1.4942017E0,-0E0,6.846876E-1,-0E0,1.6148926E0,1.1348131E0,-0E0,7.1718425E-1,-0E0,-9.1219254E-2,3.2920614E-2,-0E0,1.139768E0,-0E0,7.425447E-1,-0E0,-2.2189117E-3,-0E0,-0E0,2.3266258E-2,-0E0,7.513498E-1,-0E0,7.627706E-1,7.7389413E-1,-0E0,1.5811395E-2,-0E0],"categories":[],"categories_nodes":[],"categories_segments":[],"categories_sizes":[],"default_left":[0,0,0,0,0,0,0,0,0,0,0,0,0,0,0,0,0,0,0,0,0,0,0,0,0,0,0,0,0,0,0,0,0],"id":1,"left_children":[1,-1,3,5,7,9,-1,11,13,15,17,-1,19,-1,21,-1,-1,23,-1,25,-1,-1,-1,-1,-1,-1,27,-1,29,31,-1,-1,-1],"loss_changes":[4.8462305E2,0E0,1.1524866E2,4.6592896E1,1.732222E1,1.4432251E1,0E0,3.660347E0,1.5701109E-1,5.4053955E0,1.2006531E0,0E0,3.9432678E0,0E0,5.2842945E-2,0E0,0E0,6.782532E-1,0E0,1.3699722E0,0E0,0E0,0E0,0E0,0E0,0E0,1.8894119E0,0E0,1.3927307E0,4.605713E-1,0E0,0E0,0E0],"parents":[2147483647,0,0,2,2,3,3,4,4,5,5,7,7,8,8,9,9,10,10,12,12,14,14,17,17,19,19,26,26,28,28,29,29],"right_children":[2,-1,4,6,8,10,-1,12,14,16,18,-1,20,-1,22,-1,-1,24,-1,26,-1,-1,-1,-1,-1,-1,28,-1,30,32,-1,-1,-1],"split_conditions":[1.1453392E1,4.4912156E-2,1.2997707E1,7.149153E1,1.4490378E1,1.2410852E1,-0E0,2.4907915E1,3.9097706E1,1.7515425E5,1.987179E1,-0E0,3.0395917E2,-0E0,8.510438E4,3.2920614E-2,-0E0,3.0791095E2,-0E0,2.8041342E4,-0E0,-2.2189117E-3,-0E0,-0E0,2.3266258E-2,-0E0,1.015E3,-0E0,5.8638695E1,2.992E3,-0E0,1.5811395E-2,-0E0],"split_indices":[6,0,6,9,6,6,0,9,9,7,10,0,1,0,7,0,0,2,0,7,0,0,0,0,0,0,3,0,9,3,0,0,0],"split_type":[0,0,0,0,0,0,0,0,0,0,0,0,0,0,0,0,0,0,0,0,0,0,0,0,0,0,0,0,0,0,0,0,0],"sum_hessian":[2.5667202E3,1.4217601E3,1.1449601E3,9.235201E2,2.2144002E2,9.1200006E2,1.152E1,2.0064001E2,2.0800001E1,6.6048004E2,2.5152002E2,1.0880001E1,1.8976001E2,4.4800005E0,1.6320002E1,6.5792004E2,2.5600002E0,2.5024002E2,1.2800001E0,1.8400002E2,5.76E0,1.5040001E1,1.2800001E0,1.9200001E0,2.4832002E2,1.9200001E0,1.8208002E2,2.2400002E0,1.7984001E2,1.7696E2,2.88E0,1.7568001E2,1.2800001E0],"tree_param":{"num_deleted":"0","num_feature":"12","num_nodes":"33","size_leaf_vector":"1"}},{"base_weights":[-6.058932E-1,-1.262365E-2,1.5907493E-1,-6.6321017E-3,3.153123E-2],"categories":[],"categories_nodes":[],"categories_segments":[],"categories_sizes":[],"default_left":[0,0,0,0,0],"id":2,"left_children":[1,-1,3,-1,-1],"loss_changes":[3.419586E1,0E0,3.9888298E1,0E0,0E0],"parents":[2147483647,0,0,2,2],"right_children":[2,-1,4,-1,-1],"split_conditions":[1.5784917E5,-1.262365E-2,2.7774561E-2,-6.6321017E-3,3.153123E-2],"split_indices":[7,0,8,0,0],"split_type":[0,0,0,0,0],"sum_hessian":[2.5657603E3,2.5248003E3,4.0960003E1,2.7840002E1,1.3120001E1],"tree_param":{"num_deleted":"0","num_feature":"12","num_nodes":"5","size_leaf_vector":"1"}},{"base_weights":[-5.712065E-1],"categories":[],"categories_nodes":[],"categories_segments":[],"categories_sizes":[],"default_left":[0],"id":3,"left_children":[-1],"loss_changes":[0E0],"parents":[2147483647],"right_children":[-1],"split_conditions":[-1.1603783E-2],"split_indices":[0],"split_type":[0],"sum_hessian":[2.5641602E3],"tree_param":{"num_deleted":"0","num_feature":"12","num_nodes":"1","size_leaf_vector":"1"}},{"base_weights":[-2.0709155E-2,-3.481253E-1,5.262832E-1,-3.7660873E-1,2.7660402E-2,-4.0390167E-1,6.419784E-1,-4.8159212E-1,-1.3546126E-1,-9.982367E-3,-0E0,3.452711E-1,9.2831284E-1,-5.6251216E-1,-3.6761484E-1,-9.854279E-3,-3.8575944E-2,1.995725E-1,9.597633E-1,9.72109E-1,-0E0,-0E0,-5.654982E-1,-0E0,-3.7322485E-1,5.4326896E-3,-1.1548242E-1,-0E0,2.2978857E-1,9.811897E-1,-0E0,7.4108666E-1,1.1941869E0,-5.670058E-1,-0E0,-3.7894523E-1,-0E0,-0E0,1.22086994E-1,-1.4533548E-1,-0E0,2.4963091E-1,-0E0,-0E0,1.0035948E0,-0E0,7.7227885E-1,-0E0,2.4422733E-2,-1.1547392E-2,-0E0,-3.8688797E-1,-0E0,-0E0,-1.8887555E-2,-0E0,2.2203688E-1,-0E0,-1.8090023E-1,2.6630038E-1,-0E0,2.1242835E-2,-0E0,1.6013684E-2,-0E0,-0E0,-3.9828864E-1,2.165579E-3,-0E0,-5.2462608E-2,-0E0,5.2055744E-3,-0E0,-1.8952933E-1,-0E0,2.7592602E-1,-0E0,-3.997091E-1,-0E0,2.9171003E-2,-0E0,-7.757915E-2,-0E0,-0E0,-2.0085683E-1,2.8108618E-1,-0E0,-8.142439E-3,-0E0,-0E0,6.1569925E-2,-0E0,-9.769588E-2,-2.2271542E-1,-0E0,-0E0,2.8525704E-1,1.9349238E-3,-0E0,-0E0,-3.404723E-3,-0E0,-4.812337E-3,-0E0,5.8623217E-3],"categories":[],"categories_nodes":[],"categories_segments":[],"categories_sizes":[],"default_left":[0,0,0,0,0,0,0,0,0,0,0,0,0,0,0,0,0,0,0,0,0,0,0,0,0,0,0,0,0,0,0,0,0,0,0,0,0,0,0,0,0,0,0,0,0,0,0,0,0,0,0,0,0,0,0,0,0,0,0,0,0,0,0,0,0,0,0,0,0,0,0,0,0,0,0,0,0,0,0,0,0,0,0,0,0,0,0,0,0,0,0,0,0,0,0,0,0,0,0,0,0,0,0,0,0],"id":4,"left_children":[1,3,5,7,-1,9,11,13,15,-1,-1,17,19,21,23,-1,25,27,29,31,-1,-1,33,-1,35,37,39,-1,41,43,-1,45,47,49,-1,51,-1,53,55,57,-1,59,-1,-1,61,-1,63,-1,-1,-1,-1,65,-1,67,69,-1,71,-1,73,75,-1,-1,-1,-1,-1,-1,77,79,-1,81,-1,-1,-1,83,-1,85,-1,87,-1,89,-1,91,-1,-1,93,95,-1,-1,-1,-1,97,-1,99,101,-1,-1,103,-1,-1,-1,-1,-1,-1,-1,-1],"loss_changes":[4.5853076E2,7.2575516E1,1.0499594E2,3.558728E1,0E0,3.7242298E0,6.2353577E1,2.5541534E0,1.3270422E1,0E0,0E0,2.9975998E1,2.2953552E1,7.7030945E-1,1.3994141E0,0E0,2.2390687E0,3.2664642E0,1.5067291E0,4.218689E0,0E0,0E0,3.8912964E-1,0E0,1.4310455E0,5.947291E-1,1.5518832E0,0E0,1.7418766E0,1.5755539E0,0E0,5.0085144E0,8.39386E-1,1.9882202E-2,0E0,1.0045166E0,0E0,4.0065214E-2,8.0272996E-1,5.356674E-1,0E0,7.7630615E-1,0E0,0E0,1.496727E0,0E0,2.9619217E0,0E0,0E0,0E0,0E0,3.4207153E-1,0E0,2.625752E-4,2.3910142E-1,0E0,3.1876302E-1,0E0,4.2528677E-1,1.012495E0,0E0,0E0,0E0,0E0,0E0,0E0,2.547226E-1,4.41138E-2,0E0,3.0432546E-1,0E0,0E0,0E0,4.4132328E-1,0E0,6.8110466E-1,0E0,3.8658142E-2,0E0,1.1085677E-1,0E0,2.6853806E-1,0E0,0E0,3.6491966E-1,5.5570793E-1,0E0,0E0,0E0,0E0,1.6111037E-1,0E0,4.4205523E-1,4.877367E-1,0E0,0E0,2.634201E-1,0E0,0E0,0E0,0E0,0E0,0E0,0E0,0E0],"parents":[2147483647,0,0,1,1,2,2,3,3,5,5,6,6,7,7,8,8,11,11,12,12,13,13,14,14,16,16,17,17,18,18,19,19,22,22,24,24,25,25,26,26,28,28,29,29,31,31,32,32,33,33,35,35,37,37,38,38,39,39,41,41,44,44,46,46,51,51,53,53,54,54,56,56,58,58,59,59,66,66,67,67,69,69,73,73,75,75,77,77,79,79,81,81,84,84,85,85,90,90,92,92,93,93,96,96],"right_children":[2,4,6,8,-1,10,12,14,16,-1,-1,18,20,22,24,-1,26,28,30,32,-1,-1,34,-1,36,38,40,-1,42,44,-1,46,48,50,-1,52,-1,54,56,58,-1,60,-1,-1,62,-1,64,-1,-1,-1,-1,66,-1,68,70,-1,72,-1,74,76,-1,-1,-1,-1,-1,-1,78,80,-1,82,-1,-1,-1,84,-1,86,-1,88,-1,90,-1,92,-1,-1,94,96,-1,-1,-1,-1,98,-1,100,102,-1,-1,104,-1,-1,-1,-1,-1,-1,-1,-1],"split_conditions":[1.1687321E1,1.61E2,-2.2E1,1.1037857E1,2.7660402E-2,-3.6E1,1.24584255E1,1.0306931E1,-1.3E1,-9.982367E-3,-0E0,7.1E1,1.5129907E1,5.844113E-3,6.8989317E-3,-9.854279E-3,7.48054E4,4.0749613E4,3.1646207E2,1.3035116E1,-0E0,-0E0,6.4610725E1,-0E0,1.34E2,4.6972375E0,1.24E2,-0E0,1.3119388E5,4.6496195E-1,-0E0,2.4546085E1,3.0877563E2,3.1460626E2,-0E0,1.4769002E5,-0E0,3.0765589E1,3.1022278E2,3.9285778E1,-0E0,5.309242E1,-0E0,-0E0,2.0326641E1,-0E0,5.9865135E1,-0E0,2.4422733E-2,-1.1547392E-2,-0E0,3.0755444E2,-0E0,6.801846E4,7.236127E4,-0E0,3.1474905E2,-0E0,3.1564548E2,1.3949254E1,-0E0,2.1242835E-2,-0E0,1.6013684E-2,-0E0,-0E0,2.4725006E1,1.1647211E1,-0E0,3.145602E2,-0E0,5.2055744E-3,-0E0,3.0755444E2,-0E0,1.3004676E5,-0E0,6.4610725E1,-0E0,3.0956116E2,-0E0,3.084019E2,-0E0,-0E0,1.1585219E1,3.0693005E2,-0E0,-8.142439E-3,-0E0,-0E0,3.1396957E2,-0E0,5.659126E4,3.884412E1,-0E0,-0E0,-1.5E1,1.9349238E-3,-0E0,-0E0,-3.404723E-3,-0E0,-4.812337E-3,-0E0,5.8623217E-3],"split_indices":[6,11,11,6,0,11,6,6,11,0,0,11,6,8,8,0,7,7,2,6,0,0,9,0,11,10,11,0,7,10,0,9,2,2,0,7,0,4,2,4,0,4,0,0,10,0,4,0,0,0,0,2,0,7,7,0,2,0,2,10,0,0,0,0,0,0,10,6,0,2,0,0,0,2,0,7,0,9,0,2,0,2,0,0,6,2,0,0,0,0,2,0,7,9,0,0,11,0,0,0,0,0,0,0,0],"split_type":[0,0,0,0,0,0,0,0,0,0,0,0,0,0,0,0,0,0,0,0,0,0,0,0,0,0,0,0,0,0,0,0,0,0,0,0,0,0,0,0,0,0,0,0,0,0,0,0,0,0,0,0,0,0,0,0,0,0,0,0,0,0,0,0,0,0,0,0,0,0,0,0,0,0,0,0,0,0,0,0,0,0,0,0,0,0,0,0,0,0,0,0,0,0,0,0,0,0,0,0,0,0,0,0,0],"sum_hessian":[2.5625603E3,1.6121602E3,9.504001E2,1.5920001E3,2.0160002E1,9.728001E1,8.5312006E2,1.0857601E3,5.0624002E2,8.032001E1,1.6960001E1,4.3456003E2,4.1856003E2,5.9072003E2,4.9504004E2,9.0880005E1,4.1536002E2,3.6384003E2,7.072E1,4.0576004E2,1.2800001E1,3.8400002E0,5.8688007E2,4.8E0,4.9024002E2,2.0384001E2,2.1152002E2,2.8160002E1,3.3568002E2,6.912E1,1.6000001E0,2.2080002E2,1.8496E2,5.8496E2,1.9200001E0,4.8544003E2,4.8E0,1.6608002E2,3.7760002E1,2.0608002E2,5.4400005E0,3.1200003E2,2.3680002E1,1.6000001E0,6.7520004E1,9.280001E0,2.1152002E2,1.9200001E0,1.8304001E2,5.8208E2,2.88E0,4.7232004E2,1.3120001E1,5.6320004E1,1.0976001E2,1.1840001E1,2.5920002E1,5.7600002E1,1.4848001E2,2.8480002E2,2.7200003E1,6.3360004E1,4.1600003E0,2.0768001E2,3.8400002E0,2.4640001E1,4.4768002E2,5.3440002E1,2.88E0,9.8880005E1,1.0880001E1,2.3680002E1,2.2400002E0,1.4688E2,1.6000001E0,2.7840002E2,6.4000006E0,4.4608002E2,1.6000001E0,4.9600002E1,3.8400002E0,9.440001E1,4.4800005E0,5.4400005E0,1.4144E2,2.7680002E2,1.6000001E0,4.4384003E2,2.2400002E0,1.1200001E1,3.84E1,7.6800003E0,8.672001E1,1.21920006E2,1.952E1,1.2800001E0,2.7552002E2,3.2320004E1,6.0800004E0,4.3200005E1,4.3520004E1,5.76E0,1.1616001E2,3.2000003E0,2.7232E2],"tree_param":{"num_deleted":"0","num_feature":"12","num_nodes":"105","size_leaf_vector":"1"}},{"base_weights":[-6.0413915E-1,-1.2583488E-2,2.9374335E-2],"categories":[],"categories_nodes":[],"categories_segments":[],"categories_sizes":[],"default_left":[0,0,0],"id":5,"left_children":[1,-1,-1],"loss_changes":[7.5774414E1,0E0,0E0],"parents":[2147483647,0,0],"right_children":[2,-1,-1],"split_conditions":[1.5129907E1,-1.2583488E-2,2.9374335E-2],"split_indices":[6,0,0],"split_type":[0,0,0],"sum_hessian":[2.5384421E3,2.525032E3,1.3410119E1],"tree_param":{"num_deleted":"0","num_feature":"12","num_nodes":"3","size_leaf_vector":"1"}},{"base_weights":[1.7421151E0,2.301466E0,-1.2421966E-2,2.318636E0,-4.0237932E-4,4.7463764E-2,-0E0,-0E0,-6.834622E-4],"categories":[],"categories_nodes":[],"categories_segments":[],"categories_sizes":[],"default_left":[0,0,0,0,0,0,0,0,0],"id":6,"left_children":[1,3,-1,5,-1,-1,7,-1,-1],"loss_changes":[3.4886436E3,1.0237305E2,0E0,9.8890625E1,0E0,0E0,1.736742E-2,0E0,0E0],"parents":[2147483647,0,0,1,1,3,3,6,6],"right_children":[2,4,-1,6,-1,-1,8,-1,-1],"split_conditions":[2.01E2,1.5129907E1,-1.2421966E-2,7.149153E1,-4.0237932E-4,4.7463764E-2,1.48E2,-0E0,-6.834622E-4],"split_indices":[5,6,0,4,0,0,5,0,0],"split_type":[0,0,0,0,0,0,0,0,0],"sum_hessian":[2.63509E3,2.1317075E3,5.0338275E2,2.1192563E3,1.24510145E1,2.1051477E3,1.4108831E1,1.3148788E0,1.2793952E1],"tree_param":{"num_deleted":"0","num_feature":"12","num_nodes":"9","size_leaf_vector":"1"}},{"base_weights":[-6.041576E-1,-1.2583702E-2,1.3660555E0,-0E0,3.1129993E-2],"categories":[],"categories_nodes":[],"categories_segments":[],"categories_sizes":[],"default_left":[0,0,0,0,0],"id":7,"left_children":[1,-1,3,-1,-1],"loss_changes":[7.313367E1,0E0,4.998043E0,0E0,0E0],"parents":[2147483647,0,0,2,2],"right_children":[2,-1,4,-1,-1],"split_conditions":[7.149153E1,-1.2583702E-2,1.48E2,-0E0,3.1129993E-2],"split_indices":[4,0,5,0,0],"split_type":[0,0,0,0,0],"sum_hessian":[2.5395227E3,2.5254722E3,1.4050598E1,1.27992E0,1.27706785E1],"tree_param":{"num_deleted":"0","num_feature":"12","num_nodes":"5","size_leaf_vector":"1"}},{"base_weights":[-5.6854886E-1],"categories":[],"categories_nodes":[],"categories_segments":[],"categories_sizes":[],"default_left":[0],"id":8,"left_children":[-1],"loss_changes":[0E0],"parents":[2147483647],"right_children":[-1],"split_conditions":[-1.1549794E-2],"split_indices":[0],"split_type":[0],"sum_hessian":[2.5431526E3],"tree_param":{"num_deleted":"0","num_feature":"12","num_nodes":"1","size_leaf_vector":"1"}},{"base_weights":[-1.9542057E-2,-3.4552804E-1,5.1609266E-1,-4.6885926E-1,-7.290752E-2,2.2680728E-1,7.9031885E-1,-5.63155E-1,-3.566523E-1,6.706313E-3,-1.0425484E-1,-0E0,2.5350225E-1,8.257488E-1,-0E0,-0E0,-5.663864E-1,-0E0,-3.615768E-1,8.1125244E-2,-0E0,-1.2693149E-1,-0E0,-0E0,2.6672414E-1,6.009704E-1,1.0496554E0,-1.1539038E-2,-0E0,-3.6646286E-1,-0E0,-0E0,1.3822412E-1,-0E0,-1.5668245E-1,9.575272E-3,-0E0,2.8342038E-1,-0E0,-0E0,6.2614524E-1,2.143527E-2,-0E0,-3.700081E-1,-0E0,-0E0,1.7408511E-1,-6.297032E-2,9.686882E-3,-1.615638E-1,-0E0,1.034739E-1,-0E0,-0E0,-4.3840893E-2,2.9822856E-1,-0E0,6.386733E-1,-0E0,-7.542926E-3,-0E0,1.9083764E-1,-0E0,-0E0,-1.2573344E-1,-0E0,3.419611E-2,-3.343964E-3,-0E0,1.445666E-1,-0E0,-0E0,-4.756698E-2,3.0243987E-1,-0E0,-0E0,1.3067391E-2,-0E0,2.0080696E-1,-1.3259514E-1,-0E0,6.0210224E-2,-0E0,-0E0,1.6745383E-1,-1.0521356E-3,-0E0,3.0674797E-1,-0E0,-0E0,2.35967E-1,-2.839855E-3,-0E0,8.001641E-2,-0E0,-0E0,1.9366153E-1,3.129234E-1,-0E0,-0E0,5.2686227E-3,1.7356346E-3,-0E0,-0E0,2.095438E-1,-0E0,6.445499E-3,-0E0,4.8684278E-3],"categories":[],"categories_nodes":[],"categories_segments":[],"categories_sizes":[],"default_left":[0,0,0,0,0,0,0,0,0,0,0,0,0,0,0,0,0,0,0,0,0,0,0,0,0,0,0,0,0,0,0,0,0,0,0,0,0,0,0,0,0,0,0,0,0,0,0,0,0,0,0,0,0,0,0,0,0,0,0,0,0,0,0,0,0,0,0,0,0,0,0,0,0,0,0,0,0,0,0,0,0,0,0,0,0,0,0,0,0,0,0,0,0,0,0,0,0,0,0,0,0,0,0,0,0,0,0,0,0],"id":9,"left_children":[1,3,5,7,9,11,13,15,17,19,21,-1,23,25,-1,-1,27,-1,29,31,-1,33,35,-1,37,39,41,-1,-1,43,-1,-1,45,47,49,51,53,55,-1,-1,57,-1,-1,59,-1,-1,61,63,65,67,-1,69,-1,-1,71,73,-1,75,-1,-1,-1,77,-1,-1,79,-1,81,-1,-1,83,-1,-1,85,87,-1,-1,-1,-1,89,91,-1,93,-1,-1,95,-1,-1,97,-1,-1,99,-1,-1,101,-1,-1,103,105,-1,-1,-1,-1,-1,-1,107,-1,-1,-1,-1],"loss_changes":[4.4741605E2,4.986104E1,6.837616E1,4.104248E0,2.0344753E0,2.867838E0,1.85643E1,7.7633667E-1,1.2392273E0,2.4898922E-1,1.1222391E0,0E0,1.8865833E0,9.563782E0,0E0,0E0,3.9283752E-1,0E0,6.565399E-1,4.2598975E-1,0E0,8.462968E-1,4.9287304E-3,0E0,1.8084087E0,4.0055695E0,1.0415344E0,0E0,0E0,7.581482E-1,0E0,0E0,3.4949386E-1,2.439818E-1,2.7899933E-1,3.7884554E-1,3.993353E-2,1.4744606E0,0E0,0E0,1.9339523E0,0E0,0E0,3.249817E-1,0E0,0E0,1.3741541E-1,6.174181E-1,3.5822693E-2,1.9916773E-1,0E0,3.2531607E-1,0E0,0E0,3.460057E-3,5.878601E-1,0E0,7.860565E-2,0E0,0E0,0E0,6.0531735E-2,0E0,0E0,7.3764265E-2,0E0,7.778999E-2,0E0,0E0,1.7944211E-1,0E0,0E0,3.7535727E-3,3.000641E-1,0E0,0E0,0E0,0E0,7.456887E-2,7.8983665E-2,0E0,3.844309E-2,0E0,0E0,2.1599942E-1,0E0,0E0,6.252823E-1,0E0,0E0,7.690823E-2,0E0,0E0,1.0143667E-2,0E0,0E0,6.1039925E-3,4.8503494E-1,0E0,0E0,0E0,0E0,0E0,0E0,1.5859735E-1,0E0,0E0,0E0,0E0],"parents":[2147483647,0,0,1,1,2,2,3,3,4,4,5,5,6,6,7,7,8,8,9,9,10,10,12,12,13,13,16,16,18,18,19,19,21,21,22,22,24,24,25,25,26,26,29,29,32,32,33,33,34,34,35,35,36,36,37,37,40,40,43,43,46,46,47,47,48,48,49,49,51,51,54,54,55,55,57,57,61,61,64,64,66,66,69,69,72,72,73,73,78,78,79,79,81,81,84,84,87,87,90,90,93,93,96,96,97,97,104,104],"right_children":[2,4,6,8,10,12,14,16,18,20,22,-1,24,26,-1,-1,28,-1,30,32,-1,34,36,-1,38,40,42,-1,-1,44,-1,-1,46,48,50,52,54,56,-1,-1,58,-1,-1,60,-1,-1,62,64,66,68,-1,70,-1,-1,72,74,-1,76,-1,-1,-1,78,-1,-1,80,-1,82,-1,-1,84,-1,-1,86,88,-1,-1,-1,-1,90,92,-1,94,-1,-1,96,-1,-1,98,-1,-1,100,-1,-1,102,-1,-1,104,106,-1,-1,-1,-1,-1,-1,108,-1,-1,-1,-1],"split_conditions":[1.1687321E1,1.1037857E1,1.2410852E1,1.0247534E1,2.9489141E1,1.237E3,1.5129907E1,5.844113E-3,6.8989317E-3,1.921E3,1.1575923E1,-0E0,2.4546085E1,1.2997707E1,-0E0,-0E0,6.4610725E1,-0E0,1.5349928E5,1.056E3,-0E0,1.454E3,1.1647211E1,-0E0,1.3663139E5,2.4546085E1,2.2007923E1,-1.1539038E-2,-0E0,6.419024E1,-0E0,-0E0,1.1047621E1,1.298E3,3.3778198E-2,2.3915544E-2,3.4426693E1,5.310721E1,-0E0,-0E0,5.9865135E1,2.143527E-2,-0E0,2.4725006E1,-0E0,-0E0,1.1647211E1,1E0,3.1349533E1,1.9039421E1,-0E0,1.0504851E1,-0E0,-0E0,1.366E3,1.3229945E5,-0E0,1.015E3,-0E0,-7.542926E-3,-0E0,2.3668064E4,-0E0,-0E0,1.1566831E1,-0E0,5.3332317E1,-3.343964E-3,-0E0,5.0439586E4,-0E0,-0E0,1.1678457E1,2.957E3,-0E0,-0E0,1.3067391E-2,-0E0,1.1242685E1,5.6589256E1,-0E0,1.1441949E1,-0E0,-0E0,1E0,-1.0521356E-3,-0E0,1.2393057E1,-0E0,-0E0,2.2214888E1,-2.839855E-3,-0E0,4.9584038E1,-0E0,-0E0,1.1585219E1,2.5988783E1,-0E0,-0E0,5.2686227E-3,1.7356346E-3,-0E0,-0E0,7.142948E4,-0E0,6.445499E-3,-0E0,4.8684278E-3],"split_indices":[6,6,6,6,4,3,6,8,8,3,6,0,9,6,0,0,9,0,7,3,0,3,6,0,7,9,10,0,0,4,0,0,6,3,8,8,9,9,0,0,4,0,0,10,0,0,6,0,4,10,0,10,0,0,3,7,0,3,0,0,0,7,0,0,6,0,9,0,0,7,0,0,10,3,0,0,0,0,6,9,0,6,0,0,0,0,0,6,0,0,9,0,0,9,0,0,6,9,0,0,0,0,0,0,7,0,0,0,0],"split_type":[0,0,0,0,0,0,0,0,0,0,0,0,0,0,0,0,0,0,0,0,0,0,0,0,0,0,0,0,0,0,0,0,0,0,0,0,0,0,0,0,0,0,0,0,0,0,0,0,0,0,0,0,0,0,0,0,0,0,0,0,0,0,0,0,0,0,0,0,0,0,0,0,0,0,0,0,0,0,0,0,0,0,0,0,0,0,0,0,0,0,0,0,0,0,0,0,0,0,0,0,0,0,0,0,0,0,0,0,0],"sum_hessian":[2.5645347E3,1.6035098E3,9.6102484E2,1.0838964E3,5.196134E2,4.8320966E2,4.7781522E2,5.471712E2,5.367251E2,7.99609E1,4.396525E2,5.229253E1,4.3091714E2,4.6470395E2,1.3111241E1,3.8346438E0,5.433366E2,5.1106424E0,5.3161444E2,3.5847286E1,4.4113613E1,3.654192E2,7.423331E1,1.539117E1,4.1552597E2,2.5325552E2,2.1144844E2,5.414198E2,1.916754E0,5.223542E2,9.260298E0,2.8741398E0,3.297315E1,9.199997E1,2.7341922E2,5.1207367E1,2.3025936E1,3.902323E2,2.5293655E1,9.9395075E0,2.4331601E2,2.1015286E2,1.2955756E0,5.1788135E2,4.472815E0,1.5953572E0,3.137779E1,5.8118332E1,3.3881638E1,2.6768384E2,5.735383E0,3.3294453E1,1.7912916E1,4.798491E0,1.8227446E1,3.687726E2,2.1459696E1,2.3850612E2,4.8098907E0,5.1660315E2,1.2782146E0,2.9455881E1,1.9219093E0,6.3956375E0,5.1722694E1,2.8735418E0,3.1008095E1,2.651264E2,2.5574276E0,3.1379215E1,1.9152352E0,1.5983207E0,1.6629124E1,3.6493054E2,3.8420684E0,3.2309067E0,2.3527522E2,1.5978462E0,2.7858036E1,5.0446526E1,1.2761698E0,2.9732695E1,1.2753999E0,2.2414327E0,2.9137783E1,1.5026834E1,1.6022904E0,3.578699E2,7.0606356E0,7.0473127E0,2.0810722E1,4.917027E1,1.2762542E0,2.173353E1,7.9991646E0,2.236726E0,2.6901058E1,3.5017035E2,7.6995635E0,2.879408E0,1.7931314E1,2.0139029E1,1.5945008E0,4.1561565E0,2.2744902E1,4.813533E0,3.453568E2,3.1950488E0,1.9549852E1],"tree_param":{"num_deleted":"0","num_feature":"12","num_nodes":"109","size_leaf_vector":"1"}},{"base_weights":[-6.02446E-1,-1.2543041E-2,2.8157523E-2],"categories":[],"categories_nodes":[],"categories_segments":[],"categories_sizes":[],"default_left":[0,0,0],"id":10,"left_children":[1,-1,-1],"loss_changes":[7.154718E1,0E0,0E0],"parents":[2147483647,0,0],"right_children":[2,-1,-1],"split_conditions":[1.5129907E1,-1.2543041E-2,2.8157523E-2],"split_indices":[6,0,0],"split_type":[0,0,0],"sum_hessian":[2.5163174E3,2.5029602E3,1.3357116E1],"tree_param":{"num_deleted":"0","num_feature":"12","num_nodes":"3","size_leaf_vector":"1"}},{"base_weights":[1.6745646E0,1.7229685E0,-0E0,4.38827E-2,1.6190798E0,1.381021E-1,-2.7162424E-1,1.763139E0,1.3156875E0,2.250692E-1,-0E0,-0E0,-5.987423E-3,1.7844592E0,-0E0,4.6653205E-1,1.4326789E0,2.838298E-1,-0E0,3.629959E-2,-0E0,6.3317734E-1,-8.861903E-4,1.465277E0,3.5753745E-1,3.292913E-1,-0E0,6.6073495E-1,-0E0,1.044919E0,1.5800655E0,-0E0,4.688531E-1,3.386144E-1,-0E0,6.863E-1,-0E0,1.1246127E0,-0E0,-0E0,3.230668E-2,5.0114083E-1,-0E0,-0E0,7.064958E-3,-0E0,1.4130586E-2,1.1415173E0,-0E0,6.596729E-2,-0E0,-0E0,1.0735338E-2,2.3394465E-2,-0E0,1.9803669E-1,-0E0,-0E0,6.0354015E-3],"categories":[],"categories_nodes":[],"categories_segments":[],"categories_sizes":[],"default_left":[0,0,0,0,0,0,0,0,0,0,0,0,0,0,0,0,0,0,0,0,0,0,0,0,0,0,0,0,0,0,0,0,0,0,0,0,0,0,0,0,0,0,0,0,0,0,0,0,0,0,0,0,0,0,0,0,0,0,0],"id":11,"left_children":[1,3,5,-1,7,9,11,13,15,17,-1,-1,-1,19,-1,21,23,25,-1,-1,-1,27,-1,29,31,33,-1,35,-1,37,39,-1,41,43,-1,45,-1,47,49,-1,-1,51,-1,-1,-1,-1,-1,53,-1,55,-1,-1,-1,-1,-1,57,-1,-1,-1],"loss_changes":[2.2440674E2,8.240674E1,3.3662295E0,0E0,6.509131E1,9.109056E-1,1.2818217E-1,6.67583E1,5.556201E1,8.691472E-1,0E0,0E0,0E0,3.7910156E0,0E0,1.2865089E1,6.878296E0,6.34747E-1,0E0,0E0,0E0,1.9140358E0,0E0,4.985962E0,1.9824684E0,3.71809E-2,0E0,1.0219612E0,0E0,5.040634E0,3.005371E-1,0E0,3.9466953E-1,2.5441885E-2,0E0,3.8190842E-1,0E0,3.4402618E0,6.30911E-2,0E0,0E0,3.3903122E-2,0E0,0E0,0E0,0E0,0E0,1.3180237E0,0E0,4.1498932E-1,0E0,0E0,0E0,0E0,0E0,4.8281255E-1,0E0,0E0,0E0],"parents":[2147483647,0,0,1,1,2,2,4,4,5,5,6,6,7,7,8,8,9,9,13,13,15,15,16,16,17,17,21,21,23,23,24,24,25,25,27,27,29,29,30,30,32,32,33,33,35,35,37,37,38,38,41,41,47,47,49,49,55,55],"right_children":[2,4,6,-1,8,10,12,14,16,18,-1,-1,-1,20,-1,22,24,26,-1,-1,-1,28,-1,30,32,34,-1,36,-1,38,40,-1,42,44,-1,46,-1,48,50,-1,-1,52,-1,-1,-1,-1,-1,54,-1,56,-1,-1,-1,-1,-1,58,-1,-1,-1],"split_conditions":[1.55E2,-1.5E1,1.87E2,4.38827E-2,3.1232745E2,1.004238E5,1.27798645E-2,7.149153E1,3.0025638E2,5.1260746E1,-0E0,-0E0,-5.987423E-3,2.4725006E1,-0E0,3.144434E2,3.1646207E2,3.1553677E2,-0E0,3.629959E-2,-0E0,3.0024292E2,-8.861903E-4,3.011922E2,3.0298364E2,3.4361687E-2,-0E0,1.4E2,-0E0,8.1E1,7.6835286E-3,-0E0,7.532424E0,2.4546085E1,-0E0,-8E0,-0E0,3.1534772E2,3.1363046E2,-0E0,3.230668E-2,5.3125043E4,-0E0,-0E0,7.064958E-3,-0E0,1.4130586E-2,6.161124E1,-0E0,1.3949254E1,-0E0,-0E0,1.0735338E-2,2.3394465E-2,-0E0,1.3748647E-2,-0E0,-0E0,6.0354015E-3],"split_indices":[11,11,11,0,2,7,8,4,1,4,0,0,0,10,0,2,2,2,0,0,0,1,0,1,1,8,0,11,0,11,8,0,10,9,0,11,0,2,2,0,0,7,0,0,0,0,0,4,0,10,0,0,0,0,0,8,0,0,0],"split_type":[0,0,0,0,0,0,0,0,0,0,0,0,0,0,0,0,0,0,0,0,0,0,0,0,0,0,0,0,0,0,0,0,0,0,0,0,0,0,0,0,0,0,0,0,0,0,0,0,0,0,0,0,0,0,0,0,0,0,0],"sum_hessian":[2.7047764E3,2.6303906E3,7.4385796E1,4.8152643E2,2.148864E3,4.311375E1,3.1272043E1,1.4319957E3,7.168684E2,3.2625065E1,1.0488684E1,3.6207237E0,2.765132E1,1.4188861E3,1.3109506E1,9.608665E1,6.207818E2,3.0357407E1,2.2676592E0,1.4162255E3,2.6606972E0,8.3014465E1,1.3072183E1,5.948645E2,2.5917278E1,2.775232E1,2.6050878E0,8.0410255E1,2.6042063E0,1.4709796E2,4.4776654E2,2.8940701E0,2.3023209E1,2.6430965E1,1.3213543E0,7.651453E1,3.895734E0,1.3062593E2,1.6472033E1,5.672563E0,4.42094E2,2.1405657E1,1.6175511E0,1.2968664E0,2.5134098E1,1.3086089E0,7.520592E1,1.2935094E2,1.2749945E0,1.1948726E1,4.523307E0,2.2910476E0,1.911461E1,1.2804216E2,1.30877E0,9.640802E0,2.3079233E0,1.3039834E0,8.336819E0],"tree_param":{"num_deleted":"0","num_feature":"12","num_nodes":"59","size_leaf_vector":"1"}},{"base_weights":[-6.016632E-1,-1.2542197E-2,1.5436482E-1,-6.4947903E-3,2.9734023E-2],"categories":[],"categories_nodes":[],"categories_segments":[],"categories_sizes":[],"default_left":[0,0,0,0,0],"id":12,"left_children":[1,-1,3,-1,-1],"loss_changes":[3.3670227E1,0E0,3.6876106E1,0E0,0E0],"parents":[2147483647,0,0,2,2],"right_children":[2,-1,4,-1,-1],"split_conditions":[1.5784917E5,-1.2542197E-2,2.7774561E-2,-6.4947903E-3,2.9734023E-2],"split_indices":[7,0,8,0,0],"split_type":[0,0,0,0,0],"sum_hessian":[2.5158645E3,2.4747102E3,4.1154312E1,2.7435438E1,1.3718875E1],"tree_param":{"num_deleted":"0","num_feature":"12","num_nodes":"5","size_leaf_vector":"1"}},{"base_weights":[-5.670417E-1],"categories":[],"categories_nodes":[],"categories_segments":[],"categories_sizes":[],"default_left":[0],"id":13,"left_children":[-1],"loss_changes":[0E0],"parents":[2147483647],"right_children":[-1],"split_conditions":[-1.1519177E-2],"split_indices":[0],"split_type":[0],"sum_hessian":[2.5203767E3],"tree_param":{"num_deleted":"0","num_feature":"12","num_nodes":"1","size_leaf_vector":"1"}},{"base_weights":[-2.029074E-2,-1.2582183E-2,4.888618E-2],"categories":[],"categories_nodes":[],"categories_segments":[],"categories_sizes":[],"default_left":[0,0,0],"id":14,"left_children":[1,-1,-1],"loss_changes":[3.7178647E3,0E0,0E0],"parents":[2147483647,0,0],"right_children":[2,-1,-1],"split_conditions":[2.01E2,-1.2582183E-2,4.888618E-2],"split_indices":[5,0,0],"split_type":[0,0,0],"sum_hessian":[2.5613425E3,2.0582224E3,5.0312018E2],"tree_param":{"num_deleted":"0","num_feature":"12","num_nodes":"3","size_leaf_vector":"1"}},{"base_weights":[-5.999675E-1,-1.2500216E-2,-1.8646535E-1,2.9490456E-2,-1.0686033E-2],"categories":[],"categories_nodes":[],"categories_segments":[],"categories_sizes":[],"default_left":[0,0,0,0,0],"id":15,"left_children":[1,-1,3,-1,-1],"loss_changes":[9.549377E0,0E0,5.6439156E1,0E0,0E0],"parents":[2147483647,0,0,2,2],"right_children":[2,-1,4,-1,-1],"split_conditions":[3.1536182E2,-1.2500216E-2,3.0024292E2,2.9490456E-2,-1.0686033E-2],"split_indices":[2,0,1,0,0],"split_type":[0,0,0,0,0],"sum_hessian":[2.4900273E3,2.3821694E3,1.0785797E2,1.3303539E1,9.455443E1],"tree_param":{"num_deleted":"0","num_feature":"12","num_nodes":"5","size_leaf_vector":"1"}},{"base_weights":[1.6132615E0,1.9434594E0,1.1796271E0,3.986278E-2,-0E0,1.2432029E0,-0E0,1.3716767E0,6.264119E-1,-0E0,-4.4765226E-3,1.3983123E0,-4.180268E-4,7.235404E-1,-0E0,1.0068073E-1,-0E0,4.1289415E-2,1.3046796E0,7.466905E-1,-0E0,-0E0,-8.967258E-2,2.375931E-1,-0E0,1.4078637E0,9.6668774E-1,-0E0,7.8001887E-1,-2.1809887E-3,-0E0,2.666393E-1,-0E0,1.4106334E0,-0E0,9.9655885E-1,-0E0,7.8954333E-1,-0E0,-0E0,5.7036835E-3,2.9781131E-2,8.0270255E-1,-0E0,2.0576525E-2,8.768603E-1,1.7918979E-1,-0E0,8.381884E-1,8.90763E-1,-0E0,2.0479074E-1,-0E0,-0E0,8.6149436E-1,-0E0,9.018658E-1,2.1609853E-1,-0E0,1.8024774E-2,-0E0,-0E0,1.8479433E-2,4.641484E-3,-0E0],"categories":[],"categories_nodes":[],"categories_segments":[],"categories_sizes":[],"default_left":[0,0,0,0,0,0,0,0,0,0,0,0,0,0,0,0,0,0,0,0,0,0,0,0,0,0,0,0,0,0,0,0,0,0,0,0,0,0,0,0,0,0,0,0,0,0,0,0,0,0,0,0,0,0,0,0,0,0,0,0,0,0,0,0,0],"id":16,"left_children":[1,3,5,-1,-1,7,9,11,13,15,-1,17,-1,19,21,23,-1,-1,25,27,-1,-1,29,31,-1,33,35,-1,37,-1,-1,39,-1,41,-1,43,-1,45,-1,-1,-1,-1,47,-1,-1,49,51,-1,53,55,-1,57,-1,-1,59,-1,61,63,-1,-1,-1,-1,-1,-1,-1],"loss_changes":[3.6799414E2,5.4835938E1,9.950183E1,0E0,0E0,7.468335E1,1.2042718E0,4.548694E1,1.7709991E1,2.506742E-1,0E0,2.3762207E1,0E0,3.1754837E0,1.5141052E-1,6.647794E-1,0E0,0E0,7.771118E0,3.4233856E0,0E0,0E0,5.080864E-2,1.2092596E-1,0E0,2.165039E0,2.1957245E0,0E0,1.0400085E0,0E0,0E0,8.59952E-3,0E0,6.7248535E-1,0E0,9.993744E-1,0E0,1.0634155E0,0E0,0E0,0E0,0E0,1.3818321E0,0E0,0E0,1.421257E0,2.5663865E-1,0E0,1.3111115E0,8.9772797E-1,0E0,8.37481E-2,0E0,0E0,4.4415665E-1,0E0,2.9380798E-1,9.104955E-2,0E0,0E0,0E0,0E0,0E0,0E0,0E0],"parents":[2147483647,0,0,1,1,2,2,5,5,6,6,7,7,8,8,9,9,11,11,13,13,14,14,15,15,18,18,19,19,22,22,23,23,25,25,26,26,28,28,31,31,33,33,35,35,37,37,42,42,45,45,46,46,48,48,49,49,51,51,54,54,56,56,57,57],"right_children":[2,4,6,-1,-1,8,10,12,14,16,-1,18,-1,20,22,24,-1,-1,26,28,-1,-1,30,32,-1,34,36,-1,38,-1,-1,40,-1,42,-1,44,-1,46,-1,-1,-1,-1,48,-1,-1,50,52,-1,54,56,-1,58,-1,-1,60,-1,62,64,-1,-1,-1,-1,-1,-1,-1],"split_conditions":[1.1453392E1,1.61E2,1.55E2,3.986278E-2,-0E0,1.2997707E1,1.87E2,7.149153E1,1.4490378E1,1.26736965E1,-4.4765226E-3,-3.6E1,-4.180268E-4,1.4E2,3.902702E1,9.492058E4,-0E0,4.1289415E-2,1.24584255E1,2.4907915E1,-0E0,-0E0,8.301451E4,4.6518024E1,-0E0,1.7515425E5,1.323359E1,-0E0,5.8638695E1,-2.1809887E-3,-0E0,1.1540697E1,-0E0,7.1E1,-0E0,1.049E3,-0E0,2.7E1,-0E0,-0E0,5.7036835E-3,2.9781131E-2,9.939875E-3,-0E0,2.0576525E-2,2.979E3,2.819E3,-0E0,2.9304184E4,3.2120645E4,-0E0,1.4201344E1,-0E0,-0E0,2.884E3,-0E0,9.939875E-3,1.4193612E1,-0E0,1.8024774E-2,-0E0,-0E0,1.8479433E-2,4.641484E-3,-0E0],"split_indices":[6,11,11,0,0,6,11,4,6,6,0,11,0,11,4,7,0,0,6,9,0,0,7,4,0,7,10,0,9,0,0,6,0,11,0,3,0,11,0,0,0,0,8,0,0,3,3,0,7,7,0,10,0,0,3,0,8,6,0,0,0,0,0,0,0],"split_type":[0,0,0,0,0,0,0,0,0,0,0,0,0,0,0,0,0,0,0,0,0,0,0,0,0,0,0,0,0,0,0,0,0,0,0,0,0,0,0,0,0,0,0,0,0,0,0,0,0,0,0,0,0,0,0,0,0,0,0,0,0,0,0,0,0],"sum_hessian":[2.7714521E3,1.5585477E3,1.2129044E3,1.5429857E3,1.5562031E1,1.1561488E3,5.6755623E1,9.4422687E2,2.1192198E2,3.4504745E1,2.2250875E1,9.317616E2,1.2465253E1,1.9203465E2,1.9887331E1,2.2180222E1,1.2324525E1,1.0280128E2,8.289603E2,1.8585152E2,6.1831403E0,3.6072865E0,1.6280045E1,1.3667567E1,8.512655E0,6.1194543E2,2.1701491E2,1.0129291E1,1.7572221E2,1.4994625E1,1.2854204E0,1.2027715E1,1.639852E0,6.106228E2,1.3226115E0,2.0626053E2,1.07543745E1,1.7311543E2,2.606788E0,1.3211646E0,1.0706551E1,5.450779E2,6.554493E1,5.708124E0,2.005524E2,1.3975572E2,3.3359707E1,3.6768315E0,6.18681E1,1.3713951E2,2.6162097E0,3.1062168E1,2.2975397E0,1.6716242E0,6.0196476E1,2.3144894E0,1.3482503E2,2.9429993E1,1.6321752E0,5.7165924E1,3.0305521E0,1.9909058E0,1.3283412E2,2.7801773E1,1.6282203E0],"tree_param":{"num_deleted":"0","num_feature":"12","num_nodes":"65","size_leaf_vector":"1"}},{"base_weights":[-6.00016E-1,-1.2479403E-2,2.7331399E-2],"categories":[],"categories_nodes":[],"categories_segments":[],"categories_sizes":[],"default_left":[0,0,0],"id":17,"left_children":[1,-1,-1],"loss_changes":[6.604535E1,0E0,0E0],"parents":[2147483647,0,0],"right_children":[2,-1,-1],"split_conditions":[7.149153E1,-1.2479403E-2,2.7331399E-2],"split_indices":[9,0,0],"split_type":[0,0,0],"sum_hessian":[2.493411E3,2.4807725E3,1.263843E1],"tree_param":{"num_deleted":"0","num_feature":"12","num_nodes":"3","size_leaf_vector":"1"}},{"base_weights":[-5.639453E-1],"categories":[],"categories_nodes":[],"categories_segments":[],"categories_sizes":[],"default_left":[0],"id":18,"left_children":[-1],"loss_changes":[0E0],"parents":[2147483647],"right_children":[-1],"split_conditions":[-1.1456275E-2],"split_indices":[0],"split_type":[0],"sum_hessian":[2.496506E3],"tree_param":{"num_deleted":"0","num_feature":"12","num_nodes":"1","size_leaf_vector":"1"}},{"base_weights":[-1.87236E-2,-1.254752E-2,4.695795E-2],"categories":[],"categories_nodes":[],"categories_segments":[],"categories_sizes":[],"default_left":[0,0,0],"id":19,"left_children":[1,-1,-1],"loss_changes":[3.56654E3,0E0,0E0],"parents":[2147483647,0,0],"right_children":[2,-1,-1],"split_conditions":[2.01E2,-1.254752E-2,4.695795E-2],"split_indices":[5,0,0],"split_type":[0,0,0],"sum_hessian":[2.5593145E3,2.040052E3,5.192626E2],"tree_param":{"num_deleted":"0","num_feature":"12","num_nodes":"3","size_leaf_vector":"1"}},{"base_weights":[-5.979158E-1,-1.24610355E-2,-1.812306E-1,2.8624572E-2,-1.0624295E-2],"categories":[],"categories_nodes":[],"categories_segments":[],"categories_sizes":[],"default_left":[0,0,0,0,0],"id":20,"left_children":[1,-1,3,-1,-1],"loss_changes":[9.681213E0,0E0,5.463402E1,0E0,0E0],"parents":[2147483647,0,0,2,2],"right_children":[2,-1,4,-1,-1],"split_conditions":[3.1536182E2,-1.24610355E-2,3.0024292E2,2.8624572E-2,-1.0624295E-2],"split_indices":[2,0,1,0,0],"split_type":[0,0,0,0,0],"sum_hessian":[2.4620703E3,2.3553613E3,1.06709175E2,1.3596463E1,9.311271E1],"tree_param":{"num_deleted":"0","num_feature":"12","num_nodes":"5","size_leaf_vector":"1"}},{"base_weights":[1.5567172E0,2.0439665E0,-1.2524093E-2,4.1792005E-2,-0E0],"categories":[],"categories_nodes":[],"categories_segments":[],"categories_sizes":[],"default_left":[0,0,0,0,0],"id":21,"left_children":[1,3,-1,-1,-1],"loss_changes":[3.0153955E3,7.61416E1,0E0,0E0,0E0],"parents":[2147483647,0,0,1,1],"right_children":[2,4,-1,-1,-1],"split_conditions":[2.01E2,7.149153E1,-1.2524093E-2,4.1792005E-2,-0E0],"split_indices":[5,9,0,0,0],"split_type":[0,0,0,0,0],"sum_hessian":[2.831994E3,2.316267E3,5.157269E2,2.3044133E3,1.1853767E1],"tree_param":{"num_deleted":"0","num_feature":"12","num_nodes":"5","size_leaf_vector":"1"}},{"base_weights":[-5.975713E-1,-6.123719E-1,2.6981024E-2,-1.2464294E-2,-0E0],"categories":[],"categories_nodes":[],"categories_segments":[],"categories_sizes":[],"default_left":[0,0,0,0,0],"id":22,"left_children":[1,3,-1,-1,-1],"loss_changes":[6.713812E1,6.359253E-1,0E0,0E0,0E0],"parents":[2147483647,0,0,1,1],"right_children":[2,4,-1,-1,-1],"split_conditions":[7.149153E1,1.7515425E5,2.6981024E-2,-1.2464294E-2,-0E0],"split_indices":[9,7,0,0,0],"split_type":[0,0,0,0,0],"sum_hessian":[2.4680786E3,2.4548337E3,1.3244793E1,2.446968E3,7.8657637E0],"tree_param":{"num_deleted":"0","num_feature":"12","num_nodes":"5","size_leaf_vector":"1"}},{"base_weights":[-5.617823E-1],"categories":[],"categories_nodes":[],"categories_segments":[],"categories_sizes":[],"default_left":[0],"id":23,"left_children":[-1],"loss_changes":[0E0],"parents":[2147483647],"right_children":[-1],"split_conditions":[-1.1412335E-2],"split_indices":[0],"split_type":[0],"sum_hessian":[2.477925E3],"tree_param":{"num_deleted":"0","num_feature":"12","num_nodes":"1","size_leaf_vector":"1"}},{"base_weights":[-1.6757227E-2,-1.2512578E-2,4.5163654E-2],"categories":[],"categories_nodes":[],"categories_segments":[],"categories_sizes":[],"default_left":[0,0,0],"id":24,"left_children":[1,-1,-1],"loss_changes":[3.4351953E3,0E0,0E0],"parents":[2147483647,0,0],"right_children":[2,-1,-1],"split_conditions":[2.01E2,-1.2512578E-2,4.5163654E-2],"split_indices":[5,0,0],"split_type":[0,0,0],"sum_hessian":[2.5632542E3,2.0263898E3,5.368643E2],"tree_param":{"num_deleted":"0","num_feature":"12","num_nodes":"3","size_leaf_vector":"1"}},{"base_weights":[-5.959449E-1,-1.2425473E-2,2.6451696E-2],"categories":[],"categories_nodes":[],"categories_segments":[],"categories_sizes":[],"default_left":[0,0,0],"id":25,"left_children":[1,-1,-1],"loss_changes":[6.988623E1,0E0,0E0],"parents":[2147483647,0,0],"right_children":[2,-1,-1],"split_conditions":[1.5129907E1,-1.2425473E-2,2.6451696E-2],"split_indices":[6,0,0],"split_type":[0,0,0],"sum_hessian":[2.446247E3,2.4317874E3,1.445971E1],"tree_param":{"num_deleted":"0","num_feature":"12","num_nodes":"3","size_leaf_vector":"1"}},{"base_weights":[1.5035791E0,1.7944294E0,1.1137713E0,3.6786817E-2,-0E0,1.1712765E0,-0E0,1.2867882E0,6.014929E-1,-0E0,-4.1999705E-3,1.30943E0,-0E0,6.968611E-1,-0E0,9.3634754E-2,-0E0,3.7999034E-2,1.2251132E0,7.1921295E-1,-0E0,-0E0,-8.237755E-2,2.2318324E-1,-0E0,1.2292784E0,-0E0,8.0014735E-1,6.979298E-2,-2.0276138E-3,-0E0,-0E0,2.6372427E-1,2.6820773E-2,9.257072E-1,-0E0,8.436625E-1,1.6210325E-1,-0E0,2.790375E-1,-0E0,9.536843E-1,-0E0,8.5607296E-1,-0E0,-0E0,2.1613213E-1,6.041923E-3,-0E0,-0E0,1.9529156E-2,-0E0,8.6603236E-1,-0E0,2.759307E-1,1.773011E-2,-0E0,3.055561E-1,-0E0,-0E0,6.546272E-3],"categories":[],"categories_nodes":[],"categories_segments":[],"categories_sizes":[],"default_left":[0,0,0,0,0,0,0,0,0,0,0,0,0,0,0,0,0,0,0,0,0,0,0,0,0,0,0,0,0,0,0,0,0,0,0,0,0,0,0,0,0,0,0,0,0,0,0,0,0,0,0,0,0,0,0,0,0,0,0,0,0],"id":26,"left_children":[1,3,5,-1,-1,7,9,11,13,15,-1,17,-1,19,21,23,-1,-1,25,27,-1,-1,29,31,-1,33,-1,35,37,-1,-1,-1,39,-1,41,-1,43,45,-1,47,-1,49,-1,51,-1,-1,53,-1,-1,-1,-1,-1,55,-1,57,-1,-1,59,-1,-1,-1],"loss_changes":[3.0160107E2,4.6394043E1,8.7867065E1,0E0,0E0,6.2844727E1,1.0324287E0,3.8097168E1,1.7170013E1,2.1825264E-1,0E0,1.7018433E1,0E0,3.4087143E0,1.2530263E-1,5.9962475E-1,0E0,0E0,4.2979736E0,3.4519196E0,0E0,0E0,4.583469E-2,1.1729306E-1,0E0,3.8847656E0,0E0,4.7229233E0,3.6465657E-1,0E0,0E0,0E0,8.792281E-3,0E0,2.0006409E0,0E0,1.2728653E0,3.5308564E-1,0E0,1.2049794E-2,0E0,1.6219788E0,0E0,8.0441284E-1,0E0,0E0,4.6138334E-1,0E0,0E0,0E0,0E0,0E0,7.0817566E-1,0E0,1.5250039E-1,0E0,0E0,3.0448794E-2,0E0,0E0,0E0],"parents":[2147483647,0,0,1,1,2,2,5,5,6,6,7,7,8,8,9,9,11,11,13,13,14,14,15,15,18,18,19,19,22,22,23,23,25,25,27,27,28,28,32,32,34,34,36,36,37,37,39,39,41,41,43,43,46,46,52,52,54,54,57,57],"right_children":[2,4,6,-1,-1,8,10,12,14,16,-1,18,-1,20,22,24,-1,-1,26,28,-1,-1,30,32,-1,34,-1,36,38,-1,-1,-1,40,-1,42,-1,44,46,-1,48,-1,50,-1,52,-1,-1,54,-1,-1,-1,-1,-1,56,-1,58,-1,-1,60,-1,-1,-1],"split_conditions":[1.1453392E1,1.61E2,1.55E2,3.6786817E-2,-0E0,1.2997707E1,1.87E2,7.149153E1,1.4490378E1,1.26736965E1,-4.1999705E-3,-3.6E1,-0E0,3.0395917E2,3.9097706E1,9.492058E4,-0E0,3.7999034E-2,1.7515425E5,5.4E1,-0E0,-0E0,8.301451E4,3.094388E2,-0E0,1.24584255E1,-0E0,2.4907915E1,7.677589E4,-2.0276138E-3,-0E0,-0E0,3.03037E2,2.6820773E-2,1.323359E1,-0E0,5.8638695E1,2.9725357E2,-0E0,1.2505218E1,-0E0,3.0791095E2,-0E0,3.2120645E4,-0E0,-0E0,2.8041342E4,6.041923E-3,-0E0,-0E0,1.9529156E-2,-0E0,3.1681033E2,-0E0,1.49E2,1.773011E-2,-0E0,1.30610895E1,-0E0,-0E0,6.546272E-3],"split_indices":[6,11,11,0,0,6,11,9,6,6,0,11,0,1,9,7,0,0,7,11,0,0,7,2,0,6,0,9,7,0,0,0,1,0,10,0,9,1,0,6,0,2,0,7,0,0,7,0,0,0,0,0,2,0,11,0,0,6,0,0,0],"split_type":[0,0,0,0,0,0,0,0,0,0,0,0,0,0,0,0,0,0,0,0,0,0,0,0,0,0,0,0,0,0,0,0,0,0,0,0,0,0,0,0,0,0,0,0,0,0,0,0,0,0,0,0,0,0,0,0,0,0,0,0,0],"sum_hessian":[2.8944204E3,1.6413643E3,1.253056E3,1.6258092E3,1.5555137E1,1.1968403E3,5.6215794E1,9.815231E2,2.1531723E2,3.4611633E1,2.160416E1,9.700047E2,1.1518357E1,1.9512305E2,2.0194172E1,2.2344103E1,1.22675295E1,1.080768E2,8.619279E2,1.8961722E2,5.5058417E0,4.2788324E0,1.59153385E1,1.3870329E1,8.473774E0,8.5892377E2,3.0041764E0,1.5783871E2,3.1778505E1,1.46292095E1,1.2861288E0,2.973772E0,1.0896557E1,6.3531024E2,2.236135E2,9.483101E0,1.483556E2,1.769116E1,1.4087343E1,9.574181E0,1.3223758E0,2.127385E2,1.087499E1,1.4574886E2,2.6067474E0,1.2960465E0,1.6395115E1,8.258158E0,1.3160232E0,1.6602316E0,2.1107826E2,2.3187165E0,1.4343015E2,1.2615476E0,1.5133567E1,1.421112E2,1.3189365E0,1.350426E1,1.6293063E0,1.3266349E0,1.2177626E1],"tree_param":{"num_deleted":"0","num_feature":"12","num_nodes":"61","size_leaf_vector":"1"}},{"base_weights":[-5.963438E-1,-1.2425381E-2,1.2090751E0,-0E0,2.755277E-2],"categories":[],"categories_nodes":[],"categories_segments":[],"categories_sizes":[],"default_left":[0,0,0,0,0],"id":27,"left_children":[1,-1,3,-1,-1],"loss_changes":[6.505481E1,0E0,4.1769905E0,0E0,0E0],"parents":[2147483647,0,0,2,2],"right_children":[2,-1,4,-1,-1],"split_conditions":[7.149153E1,-1.2425381E-2,1.48E2,-0E0,2.755277E-2],"split_indices":[4,0,5,0,0],"split_type":[0,0,0,0,0],"sum_hessian":[2.445006E3,2.4302305E3,1.4775685E1,1.2866601E0,1.3489025E1],"tree_param":{"num_deleted":"0","num_feature":"12","num_nodes":"5","size_leaf_vector":"1"}},{"base_weights":[-5.598103E-1],"categories":[],"categories_nodes":[],"categories_segments":[],"categories_sizes":[],"default_left":[0],"id":28,"left_children":[-1],"loss_changes":[0E0],"parents":[2147483647],"right_children":[-1],"split_conditions":[-1.1372274E-2],"split_indices":[0],"split_type":[0],"sum_hessian":[2.4506284E3],"tree_param":{"num_deleted":"0","num_feature":"12","num_nodes":"1","size_leaf_vector":"1"}},{"base_weights":[-1.7879691E-2,-1.2471631E-2,4.320794E-2],"categories":[],"categories_nodes":[],"categories_segments":[],"categories_sizes":[],"default_left":[0,0,0],"id":29,"left_children":[1,-1,-1],"loss_changes":[3.2591091E3,0E0,0E0],"parents":[2147483647,0,0],"right_children":[2,-1,-1],"split_conditions":[2.01E2,-1.2471631E-2,4.320794E-2],"split_indices":[5,0,0],"split_type":[0,0,0],"sum_hessian":[2.5530244E3,2.0019808E3,5.510435E2],"tree_param":{"num_deleted":"0","num_feature":"12","num_nodes":"3","size_leaf_vector":"1"}},{"base_weights":[-5.94358E-1,-1.2387375E-2,2.5361916E-2],"categories":[],"categories_nodes":[],"categories_segments":[],"categories_sizes":[],"default_left":[0,0,0],"id":30,"left_children":[1,-1,-1],"loss_changes":[6.603204E1,0E0,0E0],"parents":[2147483647,0,0],"right_children":[2,-1,-1],"split_conditions":[1.5129907E1,-1.2387375E-2,2.5361916E-2],"split_indices":[6,0,0],"split_type":[0,0,0],"sum_hessian":[2.420747E3,2.4063735E3,1.4373449E1],"tree_param":{"num_deleted":"0","num_feature":"12","num_nodes":"3","size_leaf_vector":"1"}},{"base_weights":[1.4541823E0,1.8955166E0,-1.2524377E-2,1.9087616E0,-7.119793E-4,3.9047014E-2,-0E0,-0E0,-7.294494E-4],"categories":[],"categories_nodes":[],"categories_segments":[],"categories_sizes":[],"default_left":[0,0,0,0,0,0,0,0,0],"id":31,"left_children":[1,3,-1,5,-1,-1,7,-1,-1],"loss_changes":[2.714042E3,7.658496E1,0E0,7.149121E1,0E0,0E0,1.9838562E-2,0E0,0E0],"parents":[2147483647,0,0,1,1,3,3,6,6],"right_children":[2,4,-1,6,-1,-1,8,-1,-1],"split_conditions":[2.01E2,1.5129907E1,-1.2524377E-2,7.149153E1,-7.119793E-4,3.9047014E-2,1.48E2,-0E0,-7.294494E-4],"split_indices":[5,6,0,4,0,0,5,0,0],"split_type":[0,0,0,0,0,0,0,0,0],"sum_hessian":[2.9535466E3,2.4377998E3,5.157466E2,2.425065E3,1.2734961E1,2.41078E3,1.4284862E1,1.4479784E0,1.2836883E1],"tree_param":{"num_deleted":"0","num_feature":"12","num_nodes":"9","size_leaf_vector":"1"}},{"base_weights":[-5.935423E-1,-1.2387281E-2,1.2133682E0,2.6329387E-2,-0E0],"categories":[],"categories_nodes":[],"categories_segments":[],"categories_sizes":[],"default_left":[0,0,0,0,0],"id":32,"left_children":[1,-1,3,-1,-1],"loss_changes":[6.84104E1,0E0,1.6082897E0,0E0,0E0],"parents":[2147483647,0,0,2,2],"right_children":[2,-1,4,-1,-1],"split_conditions":[7.149153E1,-1.2387281E-2,1.0414066E1,2.6329387E-2,-0E0],"split_indices":[4,0,10,0,0],"split_type":[0,0,0,0,0],"sum_hessian":[2.4194153E3,2.40365E3,1.5765501E1,1.4459716E1,1.3057855E0],"tree_param":{"num_deleted":"0","num_feature":"12","num_nodes":"5","size_leaf_vector":"1"}},{"base_weights":[-5.574424E-1],"categories":[],"categories_nodes":[],"categories_segments":[],"categories_sizes":[],"default_left":[0],"id":33,"left_children":[-1],"loss_changes":[0E0],"parents":[2147483647],"right_children":[-1],"split_conditions":[-1.1324172E-2],"split_indices":[0],"split_type":[0],"sum_hessian":[2.421899E3],"tree_param":{"num_deleted":"0","num_feature":"12","num_nodes":"1","size_leaf_vector":"1"}},{"base_weights":[-1.7405847E-2,-3.3273706E-1,4.680218E-1,-4.5600608E-1,-6.565663E-2,2.0996341E-1,7.0295066E-1,-5.2418846E-1,-3.066871E-1,1.0638374E-2,-9.6803285E-2,-0E0,2.3513713E-1,7.328686E-1,-0E0,-5.2671E-1,-0E0,-0E0,-3.188214E-1,6.308475E-2,-0E0,-1.1387211E-1,-0E0,-0E0,2.4816334E-1,5.464926E-1,9.080612E-1,-0E0,-1.0773359E-2,-3.2352057E-1,-0E0,-0E0,1.0167231E-1,-0E0,-1.3358994E-1,2.5681657E-1,-0E0,-0E0,5.6866884E-1,-0E0,9.1747564E-1,-3.3827367E-1,-0E0,-0E0,1.3845241E-1,-6.68812E-2,-0E0,-1.5128446E-1,-0E0,2.594184E-1,-0E0,5.797064E-1,-0E0,1.873012E-2,-0E0,-0E0,-3.4594628E-1,-0E0,1.5723294E-1,-0E0,-1.22713916E-1,2.3441812E-2,-0E0,-1.543457E-1,-0E0,2.6358655E-1,-0E0,-0E0,1.185859E-2,-0E0,-3.500306E-1,3.638375E-3,-0E0,-0E0,-1.5360214E-1,-0E0,8.053195E-2,-1.5745659E-1,-0E0,-0E0,2.6675966E-1,-3.5185805E-1,-0E0,-1.6893612E-1,-0E0,-0E0,2.2350692E-3,-0E0,-3.219771E-3,2.8446203E-1,-0E0,-7.184734E-3,-0E0,-3.6013855E-3,-0E0,2.8632188E-1,-0E0,-0E0,2.141562E-3,-0E0,5.843344E-3],"categories":[],"categories_nodes":[],"categories_segments":[],"categories_sizes":[],"default_left":[0,0,0,0,0,0,0,0,0,0,0,0,0,0,0,0,0,0,0,0,0,0,0,0,0,0,0,0,0,0,0,0,0,0,0,0,0,0,0,0,0,0,0,0,0,0,0,0,0,0,0,0,0,0,0,0,0,0,0,0,0,0,0,0,0,0,0,0,0,0,0,0,0,0,0,0,0,0,0,0,0,0,0,0,0,0,0,0,0,0,0,0,0,0,0,0,0,0,0,0,0],"id":34,"left_children":[1,3,5,7,9,11,13,15,17,19,21,-1,23,25,-1,27,-1,-1,29,31,-1,33,-1,-1,35,37,39,-1,-1,41,-1,-1,43,45,47,49,-1,-1,51,-1,53,55,-1,-1,57,59,61,63,-1,65,-1,67,-1,-1,-1,-1,69,-1,71,-1,73,75,-1,77,-1,79,-1,-1,-1,-1,81,-1,-1,-1,83,-1,85,87,-1,-1,89,91,-1,93,-1,-1,-1,-1,-1,95,97,-1,-1,-1,-1,99,-1,-1,-1,-1,-1],"loss_changes":[3.8993872E2,4.73011E1,5.3207092E1,4.026535E0,1.8684633E0,2.6820107E0,1.4904327E1,1.0083313E0,1.2880898E0,2.850384E-1,1.2467737E0,0E0,1.8835049E0,3.9435425E0,0E0,9.142761E-1,0E0,0E0,6.0274506E-1,2.870612E-1,0E0,2.6157808E-1,0E0,0E0,1.2177544E0,3.3569717E0,1.1465607E0,0E0,0E0,6.49601E-1,0E0,0E0,3.9420164E-1,2.8234023E-1,3.0087566E-1,4.7765923E-1,0E0,0E0,1.6223297E0,0E0,7.766266E-1,6.2013245E-1,0E0,0E0,2.5211447E-1,5.652568E-1,1.3545539E-2,1.7951345E-1,0E0,3.0488205E-1,0E0,5.7182312E-2,0E0,0E0,0E0,0E0,5.8444214E-1,0E0,2.0228493E-1,0E0,4.1843677E-1,1.24057636E-1,0E0,1.8325758E-1,0E0,3.4425354E-1,0E0,0E0,0E0,0E0,2.0721436E-1,0E0,0E0,0E0,1.9214559E-1,0E0,9.2443705E-2,4.2970657E-2,0E0,0E0,1.9905281E-1,2.00531E-1,0E0,1.0748947E-1,0E0,0E0,0E0,0E0,0E0,1.4027977E-1,1.5156925E-1,0E0,0E0,0E0,0E0,1.3581467E-1,0E0,0E0,0E0,0E0,0E0],"parents":[2147483647,0,0,1,1,2,2,3,3,4,4,5,5,6,6,7,7,8,8,9,9,10,10,12,12,13,13,15,15,18,18,19,19,21,21,24,24,25,25,26,26,29,29,32,32,33,33,34,34,35,35,38,38,40,40,41,41,44,44,45,45,46,46,47,47,49,49,51,51,56,56,58,58,60,60,61,61,63,63,65,65,70,70,74,74,76,76,77,77,80,80,81,81,83,83,89,89,90,90,95,95],"right_children":[2,4,6,8,10,12,14,16,18,20,22,-1,24,26,-1,28,-1,-1,30,32,-1,34,-1,-1,36,38,40,-1,-1,42,-1,-1,44,46,48,50,-1,-1,52,-1,54,56,-1,-1,58,60,62,64,-1,66,-1,68,-1,-1,-1,-1,70,-1,72,-1,74,76,-1,78,-1,80,-1,-1,-1,-1,82,-1,-1,-1,84,-1,86,88,-1,-1,90,92,-1,94,-1,-1,-1,-1,-1,96,98,-1,-1,-1,-1,100,-1,-1,-1,-1,-1],"split_conditions":[1.1687321E1,1.1037857E1,1.2410852E1,1.0512002E1,2.9489141E1,1.237E3,1.5129907E1,6.642126E1,3.0755444E2,3.0260056E2,3.145602E2,-0E0,2.4546085E1,1.2997707E1,-0E0,1.7208466E1,-0E0,-0E0,6.2037518E1,1.1204863E1,-0E0,1.454E3,-0E0,-0E0,2.957E3,2.4546085E1,3.09049E2,-0E0,-1.0773359E-2,2.868E3,-0E0,-0E0,2.1159061E1,1.298E3,1.1575923E1,3.1752768E2,-0E0,-0E0,5.9865135E1,-0E0,6.419024E1,1.0527211E1,-0E0,-0E0,1.034E3,1E0,4.2649E1,3.1438318E2,-0E0,1.2393057E1,-0E0,1.015E3,-0E0,1.873012E-2,-0E0,-0E0,1.7208466E1,-0E0,2.736E3,-0E0,2.967133E2,3.1349533E1,-0E0,1.9039421E1,-0E0,2.5988783E1,-0E0,-0E0,1.185859E-2,-0E0,3.0516626E2,3.638375E-3,-0E0,-0E0,1.1637425E1,-0E0,2.9800632E2,3.0627063E2,-0E0,-0E0,5.309242E1,2.4725006E1,-0E0,5.504123E1,-0E0,-0E0,2.2350692E-3,-0E0,-3.219771E-3,2.0326641E1,5.9865135E1,-7.184734E-3,-0E0,-3.6013855E-3,-0E0,3.0693005E2,-0E0,-0E0,2.141562E-3,-0E0,5.843344E-3],"split_indices":[6,6,6,6,4,3,6,4,2,1,2,0,9,6,0,9,0,0,9,6,0,3,0,0,3,9,2,0,0,3,0,0,9,3,6,2,0,0,4,0,4,6,0,0,3,0,9,2,0,6,0,3,0,0,0,0,9,0,3,0,1,4,0,10,0,9,0,0,0,0,1,0,0,0,6,0,1,2,0,0,4,10,0,9,0,0,0,0,0,10,4,0,0,0,0,2,0,0,0,0,0],"split_type":[0,0,0,0,0,0,0,0,0,0,0,0,0,0,0,0,0,0,0,0,0,0,0,0,0,0,0,0,0,0,0,0,0,0,0,0,0,0,0,0,0,0,0,0,0,0,0,0,0,0,0,0,0,0,0,0,0,0,0,0,0,0,0,0,0,0,0,0,0,0,0,0,0,0,0,0,0,0,0,0,0,0,0,0,0,0,0,0,0,0,0,0,0,0,0,0,0,0,0,0,0],"sum_hessian":[2.5489124E3,1.5550007E3,9.939117E2,1.0435518E3,5.1144888E2,4.91111E2,5.028007E2,6.776401E2,3.6591168E2,7.914486E1,4.3230405E2,5.153557E1,4.3957544E2,4.9013275E2,1.2667942E1,6.747778E2,2.8622966E0,1.4841281E1,3.510704E2,7.139722E1,7.747637E0,4.0786084E2,2.4443193E1,1.4612717E1,4.249627E2,2.6325906E2,2.2687369E2,5.9598675E0,6.6881793E2,3.466311E2,4.439307E0,1.770871E1,5.368851E1,9.755446E1,3.103064E2,4.151022E2,9.860507E0,9.946348E0,2.5331271E2,3.3220773E0,2.2355162E2,3.225146E2,2.411653E1,5.346148E0,4.834236E1,6.057029E1,3.698417E1,2.5454802E2,5.5758373E1,4.1386423E2,1.2379699E0,2.4848982E2,4.822901E0,2.2224829E2,1.3033239E0,9.077414E0,3.1343716E2,1.2334623E0,4.71089E1,6.833474E0,5.3736813E1,2.2100466E1,1.4883703E1,2.519862E2,2.5618067E0,4.051869E2,8.677342E0,3.297737E0,2.4519208E2,2.5609627E0,3.108762E2,4.2028347E1,5.0805526E0,2.6261673E0,5.1110645E1,3.432438E0,1.8668028E1,2.4941942E2,2.5667963E0,4.804668E0,4.0038223E2,3.0930264E2,1.5735414E0,4.8544163E1,2.5664847E0,2.2132926E0,1.6454735E1,1.5836341E0,2.4783578E2,3.5425284E2,4.612939E1,3.0771002E2,1.5926316E0,4.7267178E1,1.2769822E0,3.513437E2,2.9091535E0,3.504038E1,1.1089011E1,1.6037334E0,3.4973996E2],"tree_param":{"num_deleted":"0","num_feature":"12","num_nodes":"101","size_leaf_vector":"1"}},{"base_weights":[-5.919831E-1,-1.2349326E-2,2.5101487E-2],"categories":[],"categories_nodes":[],"categories_segments":[],"categories_sizes":[],"default_left":[0,0,0],"id":35,"left_children":[1,-1,-1],"loss_changes":[6.711371E1,0E0,0E0],"parents":[2147483647,0,0],"right_children":[2,-1,-1],"split_conditions":[1.5129907E1,-1.2349326E-2,2.5101487E-2],"split_indices":[6,0,0],"split_type":[0,0,0],"sum_hessian":[2.3991152E3,2.3841365E3,1.4978654E1],"tree_param":{"num_deleted":"0","num_feature":"12","num_nodes":"3","size_leaf_vector":"1"}},{"base_weights":[1.4075226E0,1.828255E0,-1.2506349E-2,3.7395477E-2,-0E0,-0E0,-7.116518E-4],"categories":[],"categories_nodes":[],"categories_segments":[],"categories_sizes":[],"default_left":[0,0,0,0,0,0,0],"id":36,"left_children":[1,3,-1,-1,5,-1,-1],"loss_changes":[2.5738867E3,6.79209E1,0E0,0E0,1.8861547E-2,0E0,0E0],"parents":[2147483647,0,0,1,1,4,4],"right_children":[2,4,-1,-1,6,-1,-1],"split_conditions":[2.01E2,7.149153E1,-1.2506349E-2,3.7395477E-2,1.48E2,-0E0,-7.116518E-4],"split_indices":[5,4,0,0,5,0,0],"split_type":[0,0,0,0,0,0,0],"sum_hessian":[3.0072295E3,2.492778E3,5.1445154E2,2.478858E3,1.3920119E1,1.1001468E0,1.2819972E1],"tree_param":{"num_deleted":"0","num_feature":"12","num_nodes":"7","size_leaf_vector":"1"}},{"base_weights":[-5.915301E-1,-1.2349034E-2,1.1834935E0,-0E0,2.6801027E-2],"categories":[],"categories_nodes":[],"categories_segments":[],"categories_sizes":[],"default_left":[0,0,0,0,0],"id":37,"left_children":[1,-1,3,-1,-1],"loss_changes":[6.710187E1,0E0,4.057543E0,0E0,0E0],"parents":[2147483647,0,0,2,2],"right_children":[2,-1,4,-1,-1],"split_conditions":[7.149153E1,-1.2349034E-2,1.48E2,-0E0,2.6801027E-2],"split_indices":[4,0,5,0,0],"split_type":[0,0,0,0,0],"sum_hessian":[2.3929497E3,2.376929E3,1.6020786E1,1.2953181E0,1.4725468E1],"tree_param":{"num_deleted":"0","num_feature":"12","num_nodes":"5","size_leaf_vector":"1"}},{"base_weights":[-5.553313E-1],"categories":[],"categories_nodes":[],"categories_segments":[],"categories_sizes":[],"default_left":[0],"id":38,"left_children":[-1],"loss_changes":[0E0],"parents":[2147483647],"right_children":[-1],"split_conditions":[-1.1281285E-2],"split_indices":[0],"split_type":[0],"sum_hessian":[2.4048462E3],"tree_param":{"num_deleted":"0","num_feature":"12","num_nodes":"1","size_leaf_vector":"1"}},{"base_weights":[-1.6547387E-2,-1.2422399E-2,4.110394E-2],"categories":[],"categories_nodes":[],"categories_segments":[],"categories_sizes":[],"default_left":[0,0,0],"id":39,"left_children":[1,-1,-1],"loss_changes":[3.0895066E3,0E0,0E0],"parents":[2147483647,0,0],"right_children":[2,-1,-1],"split_conditions":[2.01E2,-1.2422399E-2,4.110394E-2],"split_indices":[5,0,0],"split_type":[0,0,0],"sum_hessian":[2.5491501E3,1.9777723E3,5.713776E2],"tree_param":{"num_deleted":"0","num_feature":"12","num_nodes":"3","size_leaf_vector":"1"}},{"base_weights":[-5.9036607E-1,-1.231142E-2,2.4286008E-2],"categories":[],"categories_nodes":[],"categories_segments":[],"categories_sizes":[],"default_left":[0,0,0],"id":40,"left_children":[1,-1,-1],"loss_changes":[6.381848E1,0E0,0E0],"parents":[2147483647,0,0],"right_children":[2,-1,-1],"split_conditions":[1.5129907E1,-1.231142E-2,2.4286008E-2],"split_indices":[6,0,0],"split_type":[0,0,0],"sum_hessian":[2.3687825E3,2.3539934E3,1.4789023E1],"tree_param":{"num_deleted":"0","num_feature":"12","num_nodes":"3","size_leaf_vector":"1"}},{"base_weights":[1.3652414E0,1.6139255E0,1.0235863E0,3.3051077E-2,-0E0,1.0750532E0,-0E0,1.1768278E0,5.599019E-1,-0E0,-4.0986873E-3,1.1994771E0,-7.0628634E-4,6.503448E-1,-0E0,8.022875E-2,-0E0,3.322866E-2,1.1177326E0,6.700785E-1,-0E0,-0E0,-1.082651E-1,1.9928098E-1,-0E0,1.2162224E0,8.6694676E-1,-0E0,6.836355E-1,-2.576924E-3,-0E0,-0E0,2.344055E-1,2.473623E-2,-0E0,-0E0,8.7232083E-1,7.1560305E-1,-0E0,2.691114E-1,-0E0,1.7898416E-2,-0E0,7.4829483E-1,-0E0,5.8445632E-3,-0E0,7.5333786E-1,-0E0,7.848975E-1,-0E0,1.6121037E-2,-0E0],"categories":[],"categories_nodes":[],"categories_segments":[],"categories_sizes":[],"default_left":[0,0,0,0,0,0,0,0,0,0,0,0,0,0,0,0,0,0,0,0,0,0,0,0,0,0,0,0,0,0,0,0,0,0,0,0,0,0,0,0,0,0,0,0,0,0,0,0,0,0,0,0,0],"id":41,"left_children":[1,3,5,-1,-1,7,9,11,13,15,-1,17,-1,19,21,23,-1,-1,25,27,-1,-1,29,31,-1,33,35,-1,37,-1,-1,-1,39,-1,-1,-1,41,43,-1,45,-1,-1,-1,47,-1,-1,-1,49,-1,51,-1,-1,-1],"loss_changes":[2.3625293E2,3.4555176E1,7.6776245E1,0E0,0E0,5.10625E1,9.792352E-1,3.7148926E1,1.5847923E1,1.6210945E-1,0E0,1.1106201E1,0E0,2.5319672E0,2.261489E-1,5.0288874E-1,0E0,0E0,3.4980469E0,1.9556503E0,0E0,0E0,6.37289E-2,9.145713E-2,0E0,6.263428E-1,1.3445282E0,0E0,2.9027023E0,0E0,0E0,0E0,1.218667E-1,0E0,0E0,0E0,4.7909546E-1,6.668625E-1,0E0,1.5695333E-2,0E0,0E0,0E0,5.1771545E-1,0E0,0E0,0E0,6.2555695E-1,0E0,1.082756E0,0E0,0E0,0E0],"parents":[2147483647,0,0,1,1,2,2,5,5,6,6,7,7,8,8,9,9,11,11,13,13,14,14,15,15,18,18,19,19,22,22,23,23,25,25,26,26,28,28,32,32,36,36,37,37,39,39,43,43,47,47,49,49],"right_children":[2,4,6,-1,-1,8,10,12,14,16,-1,18,-1,20,22,24,-1,-1,26,28,-1,-1,30,32,-1,34,36,-1,38,-1,-1,-1,40,-1,-1,-1,42,44,-1,46,-1,-1,-1,48,-1,-1,-1,50,-1,52,-1,-1,-1],"split_conditions":[1.1453392E1,1.61E2,1.55E2,3.3051077E-2,-0E0,1.2997707E1,1.87E2,7.149153E1,1.4490378E1,1.26736965E1,-4.0986873E-3,-2.2E1,-7.0628634E-4,1.4E2,3.902702E1,9.492058E4,-0E0,3.322866E-2,1.23617115E1,9.414545E-3,-0E0,-0E0,8.301451E4,3.094388E2,-0E0,1.7515425E5,3.0791095E2,-0E0,3.1646207E2,-2.576924E-3,-0E0,-0E0,4.6518024E1,2.473623E-2,-0E0,-0E0,4.6315935E-2,8.1E1,-0E0,3.1534772E2,-0E0,1.7898416E-2,-0E0,5.286159E-2,-0E0,5.8445632E-3,-0E0,4.1E1,-0E0,2.985E3,-0E0,1.6121037E-2,-0E0],"split_indices":[6,11,11,0,0,6,11,4,6,6,0,11,0,11,4,7,0,0,6,8,0,0,7,2,0,7,2,0,2,0,0,0,4,0,0,0,8,11,0,2,0,0,0,8,0,0,0,11,0,3,0,0,0],"split_type":[0,0,0,0,0,0,0,0,0,0,0,0,0,0,0,0,0,0,0,0,0,0,0,0,0,0,0,0,0,0,0,0,0,0,0,0,0,0,0,0,0,0,0,0,0,0,0,0,0,0,0,0,0],"sum_hessian":[3.0597944E3,1.7526741E3,1.3071204E3,1.7376989E3,1.4975196E1,1.2511547E3,5.5965702E1,1.0298942E3,2.2126048E2,3.4459797E1,2.1505907E1,1.0170792E3,1.2814883E1,2.0080905E2,2.0451433E1,2.2636002E1,1.1823795E1,1.3842326E2,8.7865594E2,1.9464674E2,6.1623063E0,3.7070103E0,1.6744423E1,1.4195774E1,8.440227E0,6.024311E2,2.762249E2,3.5590472E0,1.9108769E2,1.5465237E1,1.2791874E0,2.977874E0,1.12179E1,6.0142303E2,1.0080483E0,1.6573803E0,2.7456754E2,1.7984209E2,1.12456045E1,9.578646E0,1.6392545E0,2.697112E2,4.856309E0,1.6544441E2,1.4397683E1,8.251406E0,1.3272401E0,1.6411499E2,1.3294183E0,1.5199718E2,1.2117818E1,1.5035612E2,1.6410393E0],"tree_param":{"num_deleted":"0","num_feature":"12","num_nodes":"53","size_leaf_vector":"1"}},{"base_weights":[-5.8995044E-1],"categories":[],"categories_nodes":[],"categories_segments":[],"categories_sizes":[],"default_left":[0],"id":42,"left_children":[-1],"loss_changes":[0E0],"parents":[2147483647],"right_children":[-1],"split_conditions":[-1.1984557E-2],"split_indices":[0],"split_type":[0],"sum_hessian":[2.3662705E3],"tree_param":{"num_deleted":"0","num_feature":"12","num_nodes":"1","size_leaf_vector":"1"}},{"base_weights":[-5.534204E-1],"categories":[],"categories_nodes":[],"categories_segments":[],"categories_sizes":[],"default_left":[0],"id":43,"left_children":[-1],"loss_changes":[0E0],"parents":[2147483647],"right_children":[-1],"split_conditions":[-1.1242467E-2],"split_indices":[0],"split_type":[0],"sum_hessian":[2.3785083E3],"tree_param":{"num_deleted":"0","num_feature":"12","num_nodes":"1","size_leaf_vector":"1"}},{"base_weights":[-1.5477225E-2,-3.4873483E-1,4.1926706E-1,-3.794546E-1,6.443848E-1,-4.0628552E-1,5.162835E-1,-4.7902974E-1,-1.7373419E-1,-0E0,7.4051976E-1,-9.993728E-3,-0E0,2.7865854E-1,7.494473E-1,-4.821503E-1,-0E0,-9.536891E-3,-8.764299E-2,-0E0,8.196501E-1,1.443002E-1,8.3244073E-1,7.805423E-1,-0E0,-0E0,-4.837456E-1,-0E0,-1.1401211E-1,-0E0,8.5193694E-1,-0E0,1.7192836E-1,-0E0,8.60094E-1,-0E0,7.8431535E-1,-9.9284705E-3,-0E0,-0E0,3.3913556E-2,-0E0,-1.4639679E-1,-0E0,8.859436E-1,-0E0,1.9397749E-1,-0E0,8.71859E-1,-0E0,7.862502E-1,8.0226E-2,-0E0,-1.6855693E-1,-0E0,-0E0,1.8816363E-2,-0E0,2.0916508E-1,8.8449615E-1,-0E0,1.5991982E-2,-0E0,-0E0,1.3888283E-1,-0E0,-1.7190677E-1,2.2949976E-1,-0E0,-0E0,8.97376E-1,-0E0,1.4731073E-1,-0E0,-1.7382099E-1,2.4062997E-1,-0E0,1.8370844E-2,-0E0,-0E0,3.409151E-3,-3.5587016E-3,-0E0,2.5038448E-1,-0E0,-0E0,5.1716133E-3],"categories":[],"categories_nodes":[],"categories_segments":[],"categories_sizes":[],"default_left":[0,0,0,0,0,0,0,0,0,0,0,0,0,0,0,0,0,0,0,0,0,0,0,0,0,0,0,0,0,0,0,0,0,0,0,0,0,0,0,0,0,0,0,0,0,0,0,0,0,0,0,0,0,0,0,0,0,0,0,0,0,0,0,0,0,0,0,0,0,0,0,0,0,0,0,0,0,0,0,0,0,0,0,0,0,0,0],"id":44,"left_children":[1,3,5,7,9,11,13,15,17,-1,19,-1,-1,21,23,25,-1,-1,27,-1,29,31,33,35,-1,-1,37,39,41,-1,43,-1,45,-1,47,-1,49,-1,-1,-1,51,-1,53,-1,55,-1,57,-1,59,-1,61,63,-1,65,-1,-1,-1,-1,67,69,-1,-1,-1,-1,71,-1,73,75,-1,-1,77,-1,79,-1,81,83,-1,-1,-1,-1,-1,-1,-1,85,-1,-1,-1],"loss_changes":[3.6931534E2,4.3022507E1,8.929863E1,2.3993317E1,3.1148052E0,3.6286755E0,4.6727905E1,9.791107E-1,8.245344E0,0E0,6.4188576E-1,0E0,0E0,3.0419533E1,1.5561676E1,5.411377E-1,0E0,0E0,1.4281602E0,0E0,6.042061E-1,1.7646809E0,9.534683E-1,2.0038452E0,0E0,0E0,7.156372E-3,3.9936125E-2,1.204607E0,0E0,6.16415E-1,0E0,1.4820709E0,0E0,7.1032715E-1,0E0,5.994568E-1,0E0,0E0,0E0,1.5958376E-1,0E0,6.155815E-1,0E0,2.2657585E-1,0E0,1.3461838E0,0E0,2.7259445E-1,0E0,8.3862305E-2,3.2676148E-1,0E0,1.0722065E-1,0E0,0E0,0E0,0E0,8.8512516E-1,2.5786972E-1,0E0,0E0,0E0,0E0,3.3945441E-3,0E0,1.058836E-1,1.0207243E0,0E0,0E0,1.6638184E-1,0E0,1.04421556E-1,0E0,5.4843903E-2,5.863724E-1,0E0,0E0,0E0,0E0,0E0,0E0,0E0,4.5898533E-1,0E0,0E0,0E0],"parents":[2147483647,0,0,1,1,2,2,3,3,4,4,5,5,6,6,7,7,8,8,10,10,13,13,14,14,15,15,18,18,20,20,21,21,22,22,23,23,26,26,27,27,28,28,30,30,32,32,34,34,36,36,40,40,42,42,44,44,46,46,48,48,50,50,51,51,53,53,58,58,59,59,64,64,66,66,67,67,70,70,72,72,74,74,75,75,83,83],"right_children":[2,4,6,8,10,12,14,16,18,-1,20,-1,-1,22,24,26,-1,-1,28,-1,30,32,34,36,-1,-1,38,40,42,-1,44,-1,46,-1,48,-1,50,-1,-1,-1,52,-1,54,-1,56,-1,58,-1,60,-1,62,64,-1,66,-1,-1,-1,-1,68,70,-1,-1,-1,-1,72,-1,74,76,-1,-1,78,-1,80,-1,82,84,-1,-1,-1,-1,-1,-1,-1,86,-1,-1,-1],"split_conditions":[1.1575923E1,1.34E2,-2.2E1,1.09121E1,1.0079521E1,-3.6E1,1.2410852E1,6.2037518E1,-1.3E1,-0E0,2.8065327E1,-9.993728E-3,-0E0,7.1E1,1.5129907E1,1.4352484E1,-0E0,-9.536891E-3,2.8939484E1,-0E0,3.0746405E2,1.1687321E1,7.6910865E-1,1.4352484E1,-0E0,-0E0,9.7E1,1.1204863E1,1.454E3,-0E0,1.0274595E1,-0E0,1.237E3,-0E0,2.77235E1,-0E0,-1.9E1,-9.9284705E-3,-0E0,-0E0,3.1396957E2,-0E0,2.7E1,-0E0,1.104E3,-0E0,2.4546085E1,-0E0,2.957E3,-0E0,2.3745747E1,2.1159061E1,-0E0,1.0928807E1,-0E0,-0E0,1.8816363E-2,-0E0,5.309242E1,1.1596378E1,-0E0,1.5991982E-2,-0E0,-0E0,3.090872E2,-0E0,3.0627063E2,1.3949254E1,-0E0,-0E0,3.1681033E2,-0E0,1.1242685E1,-0E0,2.4E1,2.893E3,-0E0,1.8370844E-2,-0E0,-0E0,3.409151E-3,-3.5587016E-3,-0E0,3.0693005E2,-0E0,-0E0,5.1716133E-3],"split_indices":[6,11,11,6,6,11,6,9,11,0,4,0,0,11,6,9,0,0,4,0,2,6,10,9,0,0,11,6,3,0,6,0,3,0,9,0,11,0,0,0,2,0,11,0,3,0,9,0,3,0,10,9,0,6,0,0,0,0,4,6,0,0,0,0,2,0,2,10,0,0,2,0,6,0,11,3,0,0,0,0,0,0,0,2,0,0,0],"split_type":[0,0,0,0,0,0,0,0,0,0,0,0,0,0,0,0,0,0,0,0,0,0,0,0,0,0,0,0,0,0,0,0,0,0,0,0,0,0,0,0,0,0,0,0,0,0,0,0,0,0,0,0,0,0,0,0,0,0,0,0,0,0,0,0,0,0,0,0,0,0,0,0,0,0,0,0,0,0,0,0,0,0,0,0,0,0,0],"sum_hessian":[2.5475981E3,1.4521472E3,1.095451E3,1.4174089E3,3.4738304E1,1.0623549E2,9.892155E2,9.2832806E2,4.8908084E2,3.37289E0,3.1365416E1,8.664167E1,1.9593817E1,5.08578E2,4.806375E2,9.2052936E2,7.7987227E0,8.812933E1,4.009515E2,5.2768474E0,2.6088568E1,4.2273322E2,8.5844795E1,4.6844876E2,1.218875E1,3.765766E0,9.167636E2,5.519314E1,3.4575836E2,1.2970452E0,2.4791523E1,6.600054E1,3.5673267E2,4.3037395E0,8.154105E1,1.2631869E0,4.6718555E2,8.98109E2,1.865459E1,2.3019342E1,3.2173794E1,8.084925E1,2.6490912E2,1.2733085E0,2.3518215E1,3.7647762E1,3.190849E2,1.3196723E0,8.022138E1,1.3393073E0,4.6584625E2,2.8450228E1,3.7235684E0,2.2087323E2,4.403589E1,1.9553578E0,2.1562857E1,1.4242477E1,3.0484244E2,7.822156E1,1.999829E0,4.6482883E2,1.0174396E0,3.7147882E0,2.473544E1,4.9943285E0,2.158789E2,2.6958826E2,3.525417E1,1.9817096E0,7.6239845E1,2.876283E0,2.1859156E1,1.279954E0,2.1459895E2,2.626236E2,6.9646597E0,7.523777E1,1.0020769E0,1.8932905E0,1.9965866E1,2.1302936E2,1.5695927E0,2.5171791E2,1.0905694E1,1.2242559E0,2.5049365E2],"tree_param":{"num_deleted":"0","num_feature":"12","num_nodes":"87","size_leaf_vector":"1"}},{"base_weights":[-5.8804226E-1,-1.2274986E-2,2.4056485E-2],"categories":[],"categories_nodes":[],"categories_segments":[],"categories_sizes":[],"default_left":[0,0,0],"id":45,"left_children":[1,-1,-1],"loss_changes":[6.4885864E1,0E0,0E0],"parents":[2147483647,0,0],"right_children":[2,-1,-1],"split_conditions":[1.5129907E1,-1.2274986E-2,2.4056485E-2],"split_indices":[6,0,0],"split_type":[0,0,0],"sum_hessian":[2.3442983E3,2.3289038E3,1.5394696E1],"tree_param":{"num_deleted":"0","num_feature":"12","num_nodes":"3","size_leaf_vector":"1"}},{"base_weights":[1.3239971E0,1.7129134E0,-1.25300735E-2,3.503029E-2,-0E0,-0E0,-7.808107E-4],"categories":[],"categories_nodes":[],"categories_segments":[],"categories_sizes":[],"default_left":[0,0,0,0,0,0,0],"id":46,"left_children":[1,3,-1,-1,5,-1,-1],"loss_changes":[2.3620576E3,5.9845215E1,0E0,0E0,2.2802487E-2,0E0,0E0],"parents":[2147483647,0,0,1,1,4,4],"right_children":[2,4,-1,-1,6,-1,-1],"split_conditions":[2.01E2,7.149153E1,-1.25300735E-2,3.503029E-2,1.48E2,-0E0,-7.808107E-4],"split_indices":[5,4,0,0,5,0,0],"split_type":[0,0,0,0,0,0,0],"sum_hessian":[3.112367E3,2.596257E3,5.161099E2,2.5818843E3,1.4372607E1,1.4870788E0,1.2885529E1],"tree_param":{"num_deleted":"0","num_feature":"12","num_nodes":"7","size_leaf_vector":"1"}},{"base_weights":[-5.876947E-1,-1.2275783E-2,1.1573993E0,-0E0,2.5079079E-2],"categories":[],"categories_nodes":[],"categories_segments":[],"categories_sizes":[],"default_left":[0,0,0,0,0],"id":47,"left_children":[1,-1,3,-1,-1],"loss_changes":[6.579401E1,0E0,1.4671803E0,0E0,0E0],"parents":[2147483647,0,0,2,2],"right_children":[2,-1,4,-1,-1],"split_conditions":[7.149153E1,-1.2275783E-2,6.4610725E1,-0E0,2.5079079E-2],"split_indices":[4,0,9,0,0],"split_type":[0,0,0,0,0],"sum_hessian":[2.3511104E3,2.3348635E3,1.6246683E1,1.3129065E0,1.4933777E1],"tree_param":{"num_deleted":"0","num_feature":"12","num_nodes":"5","size_leaf_vector":"1"}},{"base_weights":[-5.514086E-1],"categories":[],"categories_nodes":[],"categories_segments":[],"categories_sizes":[],"default_left":[0],"id":48,"left_children":[-1],"loss_changes":[0E0],"parents":[2147483647],"right_children":[-1],"split_conditions":[-1.1201598E-2],"split_indices":[0],"split_type":[0],"sum_hessian":[2.3628503E3],"tree_param":{"num_deleted":"0","num_feature":"12","num_nodes":"1","size_leaf_vector":"1"}},{"base_weights":[-1.552912E-2,-1.237175E-2,3.9146267E-2],"categories":[],"categories_nodes":[],"categories_segments":[],"categories_sizes":[],"default_left":[0,0,0],"id":49,"left_children":[1,-1,-1],"loss_changes":[2.9210164E3,0E0,0E0],"parents":[2147483647,0,0],"right_children":[2,-1,-1],"split_conditions":[2.01E2,-1.237175E-2,3.9146267E-2],"split_indices":[5,0,0],"split_type":[0,0,0],"sum_hessian":[2.537118E3,1.9476692E3,5.894486E2],"tree_param":{"num_deleted":"0","num_feature":"12","num_nodes":"3","size_leaf_vector":"1"}},{"base_weights":[-5.861476E-1,-1.2238382E-2,2.3633612E-2],"categories":[],"categories_nodes":[],"categories_segments":[],"categories_sizes":[],"default_left":[0,0,0],"id":50,"left_children":[1,-1,-1],"loss_changes":[6.3955444E1,0E0,0E0],"parents":[2147483647,0,0],"right_children":[2,-1,-1],"split_conditions":[1.5129907E1,-1.2238382E-2,2.3633612E-2],"split_indices":[6,0,0],"split_type":[0,0,0],"sum_hessian":[2.3249233E3,2.309357E3,1.5566438E1],"tree_param":{"num_deleted":"0","num_feature":"12","num_nodes":"3","size_leaf_vector":"1"}},{"base_weights":[1.2874929E0,1.6563164E0,-1.2478231E-2,3.386385E-2,-0E0,-0E0,-5.245904E-4],"categories":[],"categories_nodes":[],"categories_segments":[],"categories_sizes":[],"default_left":[0,0,0,0,0,0,0],"id":51,"left_children":[1,3,-1,-1,5,-1,-1],"loss_changes":[2.229143E3,5.4961914E1,0E0,0E0,1.0076895E-2,0E0,0E0],"parents":[2147483647,0,0,1,1,4,4],"right_children":[2,4,-1,-1,6,-1,-1],"split_conditions":[2.01E2,7.149153E1,-1.2478231E-2,3.386385E-2,1.48E2,-0E0,-5.245904E-4],"split_indices":[5,4,0,0,5,0,0],"split_type":[0,0,0,0,0,0,0],"sum_hessian":[3.160738E3,2.6508875E3,5.0985043E2,2.6368335E3,1.4054129E1,1.4922922E0,1.2561836E1],"tree_param":{"num_deleted":"0","num_feature":"12","num_nodes":"7","size_leaf_vector":"1"}},{"base_weights":[-5.85741E-1,-1.2238825E-2,1.1278403E0,-0E0,2.552862E-2],"categories":[],"categories_nodes":[],"categories_segments":[],"categories_sizes":[],"default_left":[0,0,0,0,0],"id":52,"left_children":[1,-1,3,-1,-1],"loss_changes":[6.449017E1,0E0,3.7979736E0,0E0,0E0],"parents":[2147483647,0,0,2,2],"right_children":[2,-1,4,-1,-1],"split_conditions":[7.149153E1,-1.2238825E-2,1.48E2,-0E0,2.552862E-2],"split_indices":[4,0,5,0,0],"split_type":[0,0,0,0,0],"sum_hessian":[2.3241821E3,2.3076748E3,1.6507353E1,1.301989E0,1.5205363E1],"tree_param":{"num_deleted":"0","num_feature":"12","num_nodes":"5","size_leaf_vector":"1"}},{"base_weights":[-5.49528E-1],"categories":[],"categories_nodes":[],"categories_segments":[],"categories_sizes":[],"default_left":[0],"id":53,"left_children":[-1],"loss_changes":[0E0],"parents":[2147483647],"right_children":[-1],"split_conditions":[-1.1163395E-2],"split_indices":[0],"split_type":[0],"sum_hessian":[2.336523E3],"tree_param":{"num_deleted":"0","num_feature":"12","num_nodes":"1","size_leaf_vector":"1"}},{"base_weights":[-1.6620032E-2,-1.2332799E-2,3.7688352E-2],"categories":[],"categories_nodes":[],"categories_segments":[],"categories_sizes":[],"default_left":[0,0,0],"id":54,"left_children":[1,-1,-1],"loss_changes":[2.8006445E3,0E0,0E0],"parents":[2147483647,0,0],"right_children":[2,-1,-1],"split_conditions":[2.01E2,-1.2332799E-2,3.7688352E-2],"split_indices":[5,0,0],"split_type":[0,0,0],"sum_hessian":[2.5371663E3,1.9330955E3,6.040708E2],"tree_param":{"num_deleted":"0","num_feature":"12","num_nodes":"3","size_leaf_vector":"1"}},{"base_weights":[-5.84156E-1,-1.2198081E-2,-1.5618275E-1,2.4722347E-2,-1.0255827E-2],"categories":[],"categories_nodes":[],"categories_segments":[],"categories_sizes":[],"default_left":[0,0,0,0,0],"id":55,"left_children":[1,-1,3,-1,-1],"loss_changes":[1.0114136E1,0E0,4.6268623E1,0E0,0E0],"parents":[2147483647,0,0,2,2],"right_children":[2,-1,4,-1,-1],"split_conditions":[3.1536182E2,-1.2198081E-2,3.0024292E2,2.4722347E-2,-1.0255827E-2],"split_indices":[2,0,1,0,0],"split_type":[0,0,0,0,0],"sum_hessian":[2.2920034E3,2.190062E3,1.0194156E2,1.5013961E1,8.69276E1],"tree_param":{"num_deleted":"0","num_feature":"12","num_nodes":"5","size_leaf_vector":"1"}},{"base_weights":[1.2504145E0,1.6022167E0,-1.2429806E-2,3.276046E-2,-0E0,-0E0,-7.722202E-4],"categories":[],"categories_nodes":[],"categories_segments":[],"categories_sizes":[],"default_left":[0,0,0,0,0,0,0],"id":56,"left_children":[1,3,-1,-1,5,-1,-1],"loss_changes":[2.1131162E3,5.3428223E1,0E0,0E0,2.229159E-2,0E0,0E0],"parents":[2147483647,0,0,1,1,4,4],"right_children":[2,4,-1,-1,6,-1,-1],"split_conditions":[2.01E2,7.149153E1,-1.2429806E-2,3.276046E-2,1.48E2,-0E0,-7.722202E-4],"split_indices":[5,4,0,0,5,0,0],"split_type":[0,0,0,0,0,0,0],"sum_hessian":[3.2076987E3,2.7016958E3,5.0600302E2,2.6873196E3,1.4376067E1,1.4987822E0,1.2877285E1],"tree_param":{"num_deleted":"0","num_feature":"12","num_nodes":"7","size_leaf_vector":"1"}},{"base_weights":[-5.842252E-1,-1.220106E-2,1.3365221E-1,-5.7362816E-3,2.3884106E-2],"categories":[],"categories_nodes":[],"categories_segments":[],"categories_sizes":[],"default_left":[0,0,0,0,0],"id":57,"left_children":[1,-1,3,-1,-1],"loss_changes":[3.0739868E1,0E0,2.6257696E1,0E0,0E0],"parents":[2147483647,0,0,2,2],"right_children":[2,-1,4,-1,-1],"split_conditions":[1.5784917E5,-1.220106E-2,2.7774561E-2,-5.7362816E-3,2.3884106E-2],"split_indices":[7,0,8,0,0],"split_type":[0,0,0,0,0],"sum_hessian":[2.2968645E3,2.2562095E3,4.0655106E1,2.5254412E1,1.5400692E1],"tree_param":{"num_deleted":"0","num_feature":"12","num_nodes":"5","size_leaf_vector":"1"}},{"base_weights":[-5.460524E-1],"categories":[],"categories_nodes":[],"categories_segments":[],"categories_sizes":[],"default_left":[0],"id":58,"left_children":[-1],"loss_changes":[0E0],"parents":[2147483647],"right_children":[-1],"split_conditions":[-1.10927895E-2],"split_indices":[0],"split_type":[0],"sum_hessian":[2.314855E3],"tree_param":{"num_deleted":"0","num_feature":"12","num_nodes":"1","size_leaf_vector":"1"}},{"base_weights":[-1.359975E-2,-1.2293543E-2,3.635819E-2],"categories":[],"categories_nodes":[],"categories_segments":[],"categories_sizes":[],"default_left":[0,0,0],"id":59,"left_children":[1,-1,-1],"loss_changes":[2.6909585E3,0E0,0E0],"parents":[2147483647,0,0],"right_children":[2,-1,-1],"split_conditions":[2.01E2,-1.2293543E-2,3.635819E-2],"split_indices":[5,0,0],"split_type":[0,0,0],"sum_hessian":[2.5256267E3,1.9061798E3,6.194468E2],"tree_param":{"num_deleted":"0","num_feature":"12","num_nodes":"3","size_leaf_vector":"1"}},{"base_weights":[-5.823425E-1],"categories":[],"categories_nodes":[],"categories_segments":[],"categories_sizes":[],"default_left":[0],"id":60,"left_children":[-1],"loss_changes":[0E0],"parents":[2147483647],"right_children":[-1],"split_conditions":[-1.1830006E-2],"split_indices":[0],"split_type":[0],"sum_hessian":[2.2768184E3],"tree_param":{"num_deleted":"0","num_feature":"12","num_nodes":"1","size_leaf_vector":"1"}},{"base_weights":[1.2169367E0,1.4224596E0,9.267118E-1,2.9125895E-2,-0E0,9.7070956E-1,-0E0,1.0561999E0,4.9460864E-1,-0E0,-3.7435524E-3,1.0761383E0,-7.6598197E-4,5.845715E-1,-0E0,6.562373E-2,-0E0,2.920974E-2,1.0067282E0,-0E0,6.0634655E-1,-0E0,-1.2697893E-1,1.7116892E-1,-0E0,1.0923737E0,7.9061145E-1,6.718359E-1,2.3199724E-2,-2.9640384E-3,-0E0,1.9126001E-1,-0E0,2.2215515E-2,-0E0,-0E0,7.9513085E-1,6.981733E-1,-0E0,1.1541665E-1,-0E0,-0E0,2.277906E-1,1.6935103E-2,8.586067E-2,7.168235E-1,-0E0,1.3905953E-1,-0E0,4.8997924E-3,-0E0,-0E0,1.4773434E-1,-0E0,7.2194964E-1,-0E0,3.1597142E-3,-0E0,2.293829E-1,-0E0,1.48378685E-2,-0E0,5.2839955E-3],"categories":[],"categories_nodes":[],"categories_segments":[],"categories_sizes":[],"default_left":[0,0,0,0,0,0,0,0,0,0,0,0,0,0,0,0,0,0,0,0,0,0,0,0,0,0,0,0,0,0,0,0,0,0,0,0,0,0,0,0,0,0,0,0,0,0,0,0,0,0,0,0,0,0,0,0,0,0,0,0,0,0,0],"id":61,"left_children":[1,3,5,-1,-1,7,9,11,13,15,-1,17,-1,19,21,23,-1,-1,25,-1,27,-1,29,31,-1,33,35,37,39,-1,-1,41,-1,-1,-1,-1,43,45,-1,47,-1,-1,49,-1,51,53,-1,55,-1,-1,-1,-1,57,-1,59,-1,-1,-1,61,-1,-1,-1,-1],"loss_changes":[1.730166E2,2.8749268E1,6.1893066E1,0E0,0E0,4.0579346E1,7.9344565E-1,3.1838745E1,1.4057159E1,1.0947885E-1,0E0,5.297119E0,0E0,2.080841E0,3.1664136E-1,3.911282E-1,0E0,0E0,1.0609741E0,0E0,1.9844055E0,0E0,7.404548E-2,6.492561E-2,0E0,4.6765137E-1,1.1101379E0,2.7240906E0,2.4560934E-1,0E0,0E0,8.295417E-2,0E0,0E0,0E0,0E0,1.0903931E0,1.8071365E0,0E0,8.211073E-2,0E0,0E0,1.5005469E-3,0E0,2.7865148E-1,3.9512634E-2,0E0,4.7227234E-2,0E0,0E0,0E0,0E0,3.9783323E-1,0E0,5.378952E-1,0E0,0E0,0E0,1.3924819E-1,0E0,0E0,0E0,0E0],"parents":[2147483647,0,0,1,1,2,2,5,5,6,6,7,7,8,8,9,9,11,11,13,13,14,14,15,15,18,18,20,20,22,22,23,23,25,25,26,26,27,27,28,28,31,31,36,36,37,37,39,39,42,42,44,44,45,45,47,47,52,52,54,54,58,58],"right_children":[2,4,6,-1,-1,8,10,12,14,16,-1,18,-1,20,22,24,-1,-1,26,-1,28,-1,30,32,-1,34,36,38,40,-1,-1,42,-1,-1,-1,-1,44,46,-1,48,-1,-1,50,-1,52,54,-1,56,-1,-1,-1,-1,58,-1,60,-1,-1,-1,62,-1,-1,-1,-1],"split_conditions":[1.1453392E1,1.61E2,1.55E2,2.9125895E-2,-0E0,1.3035116E1,1.87E2,7.149153E1,1.4490378E1,1.26736965E1,-3.7435524E-3,-2.2E1,-7.6598197E-4,2.401855E1,3.902702E1,9.492058E4,-0E0,2.920974E-2,1.23617115E1,-0E0,5.4E1,-0E0,4.8426895E1,4.6518024E1,-0E0,1.7515425E5,3.0791095E2,3.1681033E2,7.677589E4,-2.9640384E-3,-0E0,3.094388E2,-0E0,2.2215515E-2,-0E0,-0E0,9.382039E0,5.6589256E1,-0E0,1.49E2,-0E0,-0E0,3.1534772E2,1.6935103E-2,5.203797E4,2.4907915E1,-0E0,3.1117322E2,-0E0,4.8997924E-3,-0E0,-0E0,1.1462865E1,-0E0,3.2120645E4,-0E0,3.1597142E-3,-0E0,3.0995975E2,-0E0,1.48378685E-2,-0E0,5.2839955E-3],"split_indices":[6,11,11,0,0,6,11,4,6,6,0,11,0,9,4,7,0,0,6,0,11,0,9,4,0,7,2,2,7,0,0,2,0,0,0,0,10,9,0,11,0,0,2,0,7,9,0,2,0,0,0,0,10,0,7,0,0,0,2,0,0,0,0],"split_type":[0,0,0,0,0,0,0,0,0,0,0,0,0,0,0,0,0,0,0,0,0,0,0,0,0,0,0,0,0,0,0,0,0,0,0,0,0,0,0,0,0,0,0,0,0,0,0,0,0,0,0,0,0,0,0,0,0,0,0,0,0,0,0],"sum_hessian":[3.248966E3,1.8811288E3,1.3678373E3,1.8655696E3,1.55592165E1,1.3121106E3,5.5726665E1,1.0964191E3,2.1569153E2,3.4911217E1,2.0815447E1,1.0835477E3,1.2871349E1,1.9482382E2,2.086771E1,2.2872559E1,1.2038658E1,1.490017E2,9.345461E2,8.261837E0,1.8656198E2,3.7787566E0,1.7088953E1,1.45369E1,8.335659E0,6.371185E2,2.9742755E2,1.5584727E2,3.0714708E1,1.5802238E1,1.2867148E0,1.291063E1,1.6262702E0,6.36101E2,1.0174971E0,1.6444548E0,2.957831E2,1.4971066E2,6.1366024E0,1.7232399E1,1.348231E1,2.96231E0,9.94832E0,2.701236E2,2.5659506E1,1.4540775E2,4.3029265E0,1.5323821E1,1.9085768E0,8.623446E0,1.3248732E0,5.9133816E0,1.9746124E1,2.0178204E0,1.4338992E2,1.6347181E0,1.3689103E1,5.4862814E0,1.4259844E1,2.3519557E0,1.4103796E2,1.6785934E0,1.258125E1],"tree_param":{"num_deleted":"0","num_feature":"12","num_nodes":"63","size_leaf_vector":"1"}},{"base_weights":[-5.8237237E-1,-1.2166467E-2,1.0555353E0,-0E0,2.396532E-2],"categories":[],"categories_nodes":[],"categories_segments":[],"categories_sizes":[],"default_left":[0,0,0,0,0],"id":62,"left_children":[1,-1,3,-1,-1],"loss_changes":[5.989026E1,0E0,3.4912872E0,0E0,0E0],"parents":[2147483647,0,0,2,2],"right_children":[2,-1,4,-1,-1],"split_conditions":[7.149153E1,-1.2166467E-2,1.48E2,-0E0,2.396532E-2],"split_indices":[4,0,5,0,0],"split_type":[0,0,0,0,0],"sum_hessian":[2.2757256E3,2.259106E3,1.6619785E1,1.3145595E0,1.5305226E1],"tree_param":{"num_deleted":"0","num_feature":"12","num_nodes":"5","size_leaf_vector":"1"}},{"base_weights":[-5.438047E-1],"categories":[],"categories_nodes":[],"categories_segments":[],"categories_sizes":[],"default_left":[0],"id":63,"left_children":[-1],"loss_changes":[0E0],"parents":[2147483647],"right_children":[-1],"split_conditions":[-1.1047129E-2],"split_indices":[0],"split_type":[0],"sum_hessian":[2.29084E3],"tree_param":{"num_deleted":"0","num_feature":"12","num_nodes":"1","size_leaf_vector":"1"}},{"base_weights":[-1.4646803E-2,-1.2255262E-2,3.5113994E-2],"categories":[],"categories_nodes":[],"categories_segments":[],"categories_sizes":[],"default_left":[0,0,0],"id":64,"left_children":[1,-1,-1],"loss_changes":[2.580035E3,0E0,0E0],"parents":[2147483647,0,0],"right_children":[2,-1,-1],"split_conditions":[2.01E2,-1.2255262E-2,3.5113994E-2],"split_indices":[5,0,0],"split_type":[0,0,0],"sum_hessian":[2.517525E3,1.8864639E3,6.310611E2],"tree_param":{"num_deleted":"0","num_feature":"12","num_nodes":"3","size_leaf_vector":"1"}},{"base_weights":[-5.804479E-1,-1.2128152E-2,-1.4740513E-1,7.6462704E-1,-1.0012553E-2,-0E0,1.0915177E0,2.4344852E-2,-0E0],"categories":[],"categories_nodes":[],"categories_segments":[],"categories_sizes":[],"default_left":[0,0,0,0,0,0,0,0,0],"id":65,"left_children":[1,-1,3,5,-1,-1,7,-1,-1],"loss_changes":[1.0351257E1,0E0,3.1359945E1,8.79039E0,0E0,0E0,3.00173E0,0E0,0E0],"parents":[2147483647,0,0,2,2,3,3,6,6],"right_children":[2,-1,4,6,-1,-1,8,-1,-1],"split_conditions":[3.1536182E2,-1.2128152E-2,3.154245E2,2.084E3,-1.0012553E-2,-0E0,2.09E3,2.4344852E-2,-0E0],"split_indices":[2,0,2,3,0,0,3,0,0],"split_type":[0,0,0,0,0,0,0,0,0],"sum_hessian":[2.247045E3,2.1466636E3,1.003813E2,2.0780504E1,7.96008E1,4.503195E0,1.627731E1,1.5159052E1,1.1182586E0],"tree_param":{"num_deleted":"0","num_feature":"12","num_nodes":"9","size_leaf_vector":"1"}},{"base_weights":[1.185588E0,1.3828745E0,9.052428E-1,2.8311182E-2,-0E0,9.4761926E-1,-0E0,1.0292451E0,4.8897123E-1,-0E0,-3.6807815E-3,1.0486017E0,-7.5646583E-4,5.7988214E-1,-7.875443E-3,4.4460993E-2,-0E0,2.8365526E-2,9.817063E-1,5.939192E-1,-0E0,-0E0,-1.3605751E-1,-0E0,1.1737858E-1,2.1617543E-2,7.716536E-1,-0E0,6.163345E-1,-3.1542506E-3,-0E0,3.3681185E-3,-0E0,8.095843E-1,7.4735515E-2,6.8243814E-1,2.7968345E-2,-0E0,1.6548133E-2,1.2705396E-1,-0E0,-0E0,6.9267255E-1,-0E0,7.847401E-2,-0E0,1.6371928E-1,7.0777816E-1,-0E0,-0E0,1.337095E-1,-0E0,1.9941688E-1,1.4645731E-2,-0E0,-0E0,2.0346923E-1,4.356018E-3,-0E0,-0E0,4.810524E-3],"categories":[],"categories_nodes":[],"categories_segments":[],"categories_sizes":[],"default_left":[0,0,0,0,0,0,0,0,0,0,0,0,0,0,0,0,0,0,0,0,0,0,0,0,0,0,0,0,0,0,0,0,0,0,0,0,0,0,0,0,0,0,0,0,0,0,0,0,0,0,0,0,0,0,0,0,0,0,0,0,0],"id":66,"left_children":[1,3,5,-1,-1,7,9,11,13,15,-1,17,-1,19,21,23,-1,-1,25,27,-1,-1,29,-1,31,-1,33,-1,35,-1,-1,-1,-1,37,39,41,43,-1,-1,45,-1,-1,47,-1,49,-1,51,53,-1,-1,55,-1,57,-1,-1,-1,59,-1,-1,-1,-1],"loss_changes":[1.6203418E2,2.7049805E1,5.943274E1,0E0,0E0,3.714966E1,7.6313865E-1,3.0635376E1,1.4209457E1,4.889253E-2,0E0,4.3060303E0,0E0,2.1721115E0,3.6834496E-1,2.2168198E-1,0E0,0E0,6.1157227E-1,2.1616592E0,0E0,0E0,8.082926E-2,0E0,2.3580396E-1,0E0,1.224411E0,0E0,1.9130173E0,0E0,0E0,0E0,0E0,1.1595154E0,2.7020538E-1,1.6165848E0,1.5396851E-1,0E0,0E0,2.5051472E-1,0E0,0E0,9.3587494E-1,0E0,2.573056E-1,0E0,2.8707016E-1,1.6854019E0,0E0,0E0,3.9072502E-1,0E0,2.5241673E-2,0E0,0E0,0E0,1.8585122E-1,0E0,0E0,0E0,0E0],"parents":[2147483647,0,0,1,1,2,2,5,5,6,6,7,7,8,8,9,9,11,11,13,13,14,14,15,15,18,18,19,19,22,22,24,24,26,26,28,28,33,33,34,34,35,35,36,36,39,39,42,42,44,44,46,46,47,47,50,50,52,52,56,56],"right_children":[2,4,6,-1,-1,8,10,12,14,16,-1,18,-1,20,22,24,-1,-1,26,28,-1,-1,30,-1,32,-1,34,-1,36,-1,-1,-1,-1,38,40,42,44,-1,-1,46,-1,-1,48,-1,50,-1,52,54,-1,-1,56,-1,58,-1,-1,-1,60,-1,-1,-1,-1],"split_conditions":[1.1453392E1,1.61E2,1.55E2,2.8311182E-2,-0E0,1.3035116E1,1.87E2,7.149153E1,1.4490378E1,1.26736965E1,-3.6807815E-3,-2.2E1,-7.5646583E-4,3.0426318E2,3.902702E1,4.0727696E0,-0E0,2.8365526E-2,1.23617115E1,2.401855E1,-0E0,-0E0,4.8426895E1,-0E0,5.06275E1,2.1617543E-2,9.382039E0,-0E0,5.4E1,-3.1542506E-3,-0E0,3.3681185E-3,-0E0,3.0791095E2,3.522729E-2,9.414545E-3,2.977764E2,-0E0,1.6548133E-2,1.9256931E1,-0E0,-0E0,5.6589256E1,-0E0,1.5401114E-2,-0E0,9.588803E0,3.034067E2,-0E0,-0E0,3.3076496E0,-0E0,2.726754E-2,1.4645731E-2,-0E0,-0E0,3.1576412E1,4.356018E-3,-0E0,-0E0,4.810524E-3],"split_indices":[6,11,11,0,0,6,11,4,6,6,0,11,0,1,4,10,0,0,6,9,0,0,9,0,9,0,10,0,11,0,0,0,0,2,8,8,1,0,0,4,0,0,9,0,8,0,10,1,0,0,10,0,8,0,0,0,9,0,0,0,0],"split_type":[0,0,0,0,0,0,0,0,0,0,0,0,0,0,0,0,0,0,0,0,0,0,0,0,0,0,0,0,0,0,0,0,0,0,0,0,0,0,0,0,0,0,0,0,0,0,0,0,0,0,0,0,0,0,0,0,0,0,0,0,0],"sum_hessian":[3.2941995E3,1.9119824E3,1.3822172E3,1.8964373E3,1.5545252E1,1.3273207E3,5.4896503E1,1.110251E3,2.1706964E2,3.420051E1,2.0695997E1,1.0973887E3,1.2862306E1,1.9585864E2,2.1211008E1,2.218406E1,1.2016449E1,1.508455E2,9.4654315E2,1.9274869E2,3.1099532E0,3.7827506E0,1.7428257E1,5.0948834E0,1.7089174E1,6.467519E2,2.9979126E2,8.256618E0,1.8449207E2,1.6142727E1,1.2855291E0,1.5871645E1,1.2175295E0,2.737488E2,2.6042467E1,1.5406412E2,3.0427946E1,1.6422663E0,2.7210654E2,2.4081982E1,1.9604855E0,1.2244903E0,1.5283963E2,3.7861233E0,2.6641823E1,1.2464509E0,2.283553E1,1.4814589E2,4.6937327E0,4.744148E0,2.1897675E1,1.0560607E0,2.1779469E1,1.4593271E2,2.213194E0,4.4518633E0,1.7445812E1,1.9041208E1,2.7382617E0,1.9186692E0,1.5527143E1],"tree_param":{"num_deleted":"0","num_feature":"12","num_nodes":"61","size_leaf_vector":"1"}},{"base_weights":[-5.805183E-1,-1.2131618E-2,1.0300564E0,2.2335548E-2,-0E0],"categories":[],"categories_nodes":[],"categories_segments":[],"categories_sizes":[],"default_left":[0,0,0,0,0],"id":67,"left_children":[1,-1,3,-1,-1],"loss_changes":[5.8765198E1,0E0,1.2364864E0,0E0,0E0],"parents":[2147483647,0,0,2,2],"right_children":[2,-1,4,-1,-1],"split_conditions":[7.149153E1,-1.2131618E-2,1.0414066E1,2.2335548E-2,-0E0],"split_indices":[4,0,10,0,0],"split_type":[0,0,0,0,0],"sum_hessian":[2.2482217E3,2.231372E3,1.6849726E1,1.54998865E1,1.3498394E0],"tree_param":{"num_deleted":"0","num_feature":"12","num_nodes":"5","size_leaf_vector":"1"}},{"base_weights":[-5.425276E-1],"categories":[],"categories_nodes":[],"categories_segments":[],"categories_sizes":[],"default_left":[0],"id":68,"left_children":[-1],"loss_changes":[0E0],"parents":[2147483647],"right_children":[-1],"split_conditions":[-1.1021185E-2],"split_indices":[0],"split_type":[0],"sum_hessian":[2.2682554E3],"tree_param":{"num_deleted":"0","num_feature":"12","num_nodes":"1","size_leaf_vector":"1"}},{"base_weights":[-1.490583E-2,-7.313247E-2,1.0257839E0,-5.178478E-1,1.4315788E-2,-0E0,1.0356886E0,-1.1491704E-2,-1.5700543E-1,-1.0677118E-1,2.5936368E-1,-0E0,1.0452425E0,-1.9831042E-1,-0E0,1.2463435E-2,-2.691675E-1,4.4527435E-1,5.9530135E-2,3.5175332E-1,1.20556E0,-0E0,-2.3653424E-1,-1.6781162E-1,3.5198912E-1,-4.7298765E-1,-1.734479E-1,4.7092783E-1,-0E0,-1.4935973E-1,4.1105306E-1,4.6611646E-1,-0E0,1.226251E0,-0E0,-2.577376E-1,-0E0,3.897281E-2,-2.7023393E-1,3.6054614E-1,-0E0,-4.7804412E-1,-0E0,-0E0,-3.5336304E-1,6.0779333E-1,2.5796723E-1,-0E0,-2.1858042E-1,5.917441E-1,1.1663858E-1,-0E0,5.340145E-1,-0E0,2.51347E-2,-5.8549056E-3,-0E0,-1.3181232E-1,2.6408777E-1,-4.132326E-1,-6.718491E-2,8.211915E-3,4.0499666E-1,-0E0,-9.806142E-3,-8.454778E-2,3.579464E-2,-0E0,-3.612267E-1,6.1877257E-1,-0E0,-0E0,4.672617E-1,-4.1719127E-2,7.0046045E-2,-2.3885362E-1,-0E0,-0E0,6.105155E-1,-0E0,3.9064923E-1,5.953821E-1,-0E0,-0E0,-1.522488E-1,3.0544996E-1,-0E0,-4.3658224E-1,-0E0,-0E0,-1.9298717E-1,1.0465978E-1,-0E0,-0E0,4.2600352E-1,-1.3061967E-1,-0E0,1.13576055E-1,-0E0,-3.7302592E-1,-0E0,-0E0,6.297695E-1,5.085551E-1,-0E0,-7.332401E-2,-0E0,1.239775E-1,-0E0,-2.4985923E-1,-0E0,-0E0,6.3505083E-1,4.3853143E-1,-0E0,6.414781E-1,-0E0,-2.0132586E-1,-0E0,-0E0,3.4083512E-1,-0E0,-8.956962E-3,-0E0,5.199182E-3,-0E0,-2.6010004E-1,1.5206526E-1,-0E0,-0E0,8.708717E-3,-1.7975833E-1,-0E0,-0E0,1.4738768E-1,-3.715519E-2,-0E0,-3.825145E-1,-0E0,6.391094E-1,-0E0,5.348831E-1,-0E0,-1.6054934E-3,-0E0,1.4778447E-1,-0E0,-2.6300558E-1,-0E0,1.3008111E-2,-0E0,9.243983E-3,-0E0,1.4528264E-2,-0E0,-0E0,-2.4009125E-1,3.814319E-1,-0E0,-7.6594785E-2,-0E0,-2.818914E-1,-0E0,1.8176655E-1,-0E0,-2.0266163E-1,-0E0,1.6240472E-1,-0E0,-0E0,-9.059582E-2,-3.8578337E-1,-0E0,6.437093E-1,-0E0,-0E0,5.5904657E-1,3.643331E-3,-0E0,-2.7035272E-1,-0E0,-5.112657E-3,-0E0,8.264641E-3,-0E0,-0E0,-2.570691E-3,-0E0,-6.055287E-3,4.1643325E-3,-0E0,-0E0,-4.4331877E-3,-0E0,3.5676875E-3,-2.1023205E-3,-0E0,-7.942608E-3,-0E0,-0E0,1.3121193E-2,-0E0,1.16713755E-2,-0E0,-5.5608586E-3],"categories":[],"categories_nodes":[],"categories_segments":[],"categories_sizes":[],"default_left":[0,0,0,0,0,0,0,0,0,0,0,0,0,0,0,0,0,0,0,0,0,0,0,0,0,0,0,0,0,0,0,0,0,0,0,0,0,0,0,0,0,0,0,0,0,0,0,0,0,0,0,0,0,0,0,0,0,0,0,0,0,0,0,0,0,0,0,0,0,0,0,0,0,0,0,0,0,0,0,0,0,0,0,0,0,0,0,0,0,0,0,0,0,0,0,0,0,0,0,0,0,0,0,0,0,0,0,0,0,0,0,0,0,0,0,0,0,0,0,0,0,0,0,0,0,0,0,0,0,0,0,0,0,0,0,0,0,0,0,0,0,0,0,0,0,0,0,0,0,0,0,0,0,0,0,0,0,0,0,0,0,0,0,0,0,0,0,0,0,0,0,0,0,0,0,0,0,0,0,0,0,0,0,0,0,0,0,0,0,0,0,0,0,0,0,0,0,0,0,0,0,0,0,0,0],"id":69,"left_children":[1,3,5,7,9,-1,11,-1,13,15,17,-1,19,21,-1,23,25,27,29,31,33,-1,35,37,39,41,43,45,-1,47,49,51,-1,53,-1,55,-1,57,59,61,-1,63,-1,65,67,69,71,73,75,77,79,-1,81,-1,-1,-1,-1,83,85,87,89,91,93,-1,-1,95,97,-1,99,101,-1,-1,103,105,107,109,-1,-1,111,-1,113,115,-1,-1,117,119,-1,121,-1,123,125,127,-1,-1,129,131,-1,133,135,137,-1,-1,139,141,-1,143,-1,145,-1,147,-1,-1,149,151,-1,153,-1,155,-1,-1,157,-1,-1,159,-1,-1,161,163,-1,-1,-1,165,-1,-1,167,169,-1,171,-1,173,-1,175,-1,-1,-1,177,-1,179,-1,-1,-1,-1,-1,-1,-1,-1,181,183,-1,185,-1,187,-1,189,-1,191,-1,193,-1,-1,195,197,-1,199,-1,-1,201,-1,-1,203,-1,-1,-1,-1,-1,-1,-1,-1,-1,-1,-1,-1,-1,-1,-1,-1,-1,-1,-1,-1,-1,-1,-1,-1,-1],"loss_changes":[1.4522746E2,9.662233E1,1.1458435E0,1.3845596E0,6.0062206E1,0E0,1.0652466E0,0E0,8.3357954E-1,2.7271168E1,2.1312172E1,0E0,1.0333252E0,7.20217E-1,0E0,4.6245155E1,6.2871017E0,4.0744553E0,2.7715681E1,1.3527427E0,1.4665985E0,0E0,4.807279E-1,1.1595041E1,1.2007637E0,4.7794342E-1,1.2458338E1,2.2858276E0,0E0,2.4443426E0,2.1859703E0,1.108706E0,0E0,8.144226E-1,0E0,1.3548589E-1,0E0,6.1496916E0,6.0682907E0,1.0550537E0,0E0,2.791252E-1,0E0,7.9533994E-1,9.5440674E-1,1.689476E0,6.503352E0,2.2733045E-1,9.3920755E-1,6.462326E-1,3.6263967E0,0E0,1.2362761E0,0E0,0E0,0E0,0E0,2.9730666E-1,1.2874303E0,1.5287304E0,2.6150353E0,3.1842658E-1,9.766159E-1,0E0,0E0,4.3880695E-1,1.0854063E0,0E0,8.4085464E-1,1.3982658E0,0E0,0E0,1.4272957E0,9.129859E-2,3.1974524E-1,5.182562E-1,0E0,0E0,6.6052055E-1,0E0,7.6620436E-1,6.420326E-1,0E0,0E0,3.8264465E-1,1.2009091E0,0E0,3.2513428E-1,0E0,1.3740335E0,1.8380616E0,2.863698E-1,0E0,0E0,3.048706E-2,7.325288E-1,0E0,7.709416E-1,4.7381736E-2,7.079239E-1,0E0,0E0,1.1390686E0,9.6425056E-1,0E0,1.2970969E-2,0E0,1.6031563E-1,0E0,5.0679684E-1,0E0,0E0,2.1144867E-2,1.387229E-1,0E0,4.1331196E-1,0E0,3.564775E-1,0E0,0E0,1.2955365E0,0E0,0E0,1.8472368E-1,0E0,0E0,6.0573816E-1,1.8830663E-1,0E0,0E0,0E0,4.1599083E-1,0E0,0E0,3.5552406E-1,1.5702033E-1,0E0,2.4344635E-1,0E0,3.9823914E-1,0E0,8.044853E-1,0E0,0E0,0E0,2.7272868E-1,0E0,3.0229282E-1,0E0,0E0,0E0,0E0,0E0,0E0,0E0,0E0,1.0338616E-1,9.99321E-1,0E0,2.7600113E-1,0E0,1.9162464E-1,0E0,8.718914E-2,0E0,2.1666932E-1,0E0,1.6932154E-1,0E0,0E0,4.8629507E-2,7.218933E-2,0E0,2.2819519E-2,0E0,0E0,5.659847E-1,0E0,0E0,1.1671448E-1,0E0,0E0,0E0,0E0,0E0,0E0,0E0,0E0,0E0,0E0,0E0,0E0,0E0,0E0,0E0,0E0,0E0,0E0,0E0,0E0,0E0,0E0,0E0,0E0,0E0],"parents":[2147483647,0,0,1,1,2,2,3,3,4,4,6,6,8,8,9,9,10,10,12,12,13,13,15,15,16,16,17,17,18,18,19,19,20,20,22,22,23,23,24,24,25,25,26,26,27,27,29,29,30,30,31,31,33,33,35,35,37,37,38,38,39,39,41,41,43,43,44,44,45,45,46,46,47,47,48,48,49,49,50,50,52,52,57,57,58,58,59,59,60,60,61,61,62,62,65,65,66,66,68,68,69,69,72,72,73,73,74,74,75,75,78,78,80,80,81,81,84,84,85,85,87,87,89,89,90,90,91,91,94,94,95,95,97,97,98,98,99,99,102,102,103,103,105,105,107,107,109,109,112,112,113,113,115,115,117,117,120,120,123,123,126,126,127,127,131,131,134,134,135,135,137,137,139,139,141,141,145,145,147,147,156,156,157,157,159,159,161,161,163,163,165,165,167,167,170,170,171,171,173,173,176,176,179,179],"right_children":[2,4,6,8,10,-1,12,-1,14,16,18,-1,20,22,-1,24,26,28,30,32,34,-1,36,38,40,42,44,46,-1,48,50,52,-1,54,-1,56,-1,58,60,62,-1,64,-1,66,68,70,72,74,76,78,80,-1,82,-1,-1,-1,-1,84,86,88,90,92,94,-1,-1,96,98,-1,100,102,-1,-1,104,106,108,110,-1,-1,112,-1,114,116,-1,-1,118,120,-1,122,-1,124,126,128,-1,-1,130,132,-1,134,136,138,-1,-1,140,142,-1,144,-1,146,-1,148,-1,-1,150,152,-1,154,-1,156,-1,-1,158,-1,-1,160,-1,-1,162,164,-1,-1,-1,166,-1,-1,168,170,-1,172,-1,174,-1,176,-1,-1,-1,178,-1,180,-1,-1,-1,-1,-1,-1,-1,-1,182,184,-1,186,-1,188,-1,190,-1,192,-1,194,-1,-1,196,198,-1,200,-1,-1,202,-1,-1,204,-1,-1,-1,-1,-1,-1,-1,-1,-1,-1,-1,-1,-1,-1,-1,-1,-1,-1,-1,-1,-1,-1,-1,-1,-1],"split_conditions":[1.4E2,-1.5E1,3.309983E-1,-3.6E1,3.124162E2,-0E0,3.0693005E2,-1.1491704E-2,3.144434E2,2.99352E2,3.0163745E2,-0E0,1.55E2,2.975308E2,-0E0,3.0998883E2,3.105679E2,3.1536182E2,3.1466608E2,2E0,2.3745747E1,-0E0,6.3035686E1,2.9700168E2,2.979E3,1.19E2,3.0050024E2,3.0088434E2,-0E0,3.0204996E2,3.0316193E2,3.0952765E2,-0E0,7.6835286E-3,-0E0,3.1306262E2,-0E0,3.0737677E2,3.0901215E2,3.1028235E2,-0E0,5.844113E-3,-0E0,3.1122E2,1.2457408E1,1.8127449E1,3.1338565E2,3.1338565E2,2.901E3,2.4213358E1,3.1615024E2,-0E0,2.837E3,-0E0,2.51347E-2,-5.8549056E-3,-0E0,0E0,5.309242E1,8.4E1,2.9816867E2,2.018E3,1.1811457E-2,-0E0,-9.806142E-3,2.5974503E-2,4.438197E1,-0E0,1.4510608E1,1.516582E1,-0E0,-0E0,5.2959118E1,9.1E1,5.033082E1,5.8638695E1,-0E0,-0E0,1.159E3,-0E0,7.5E1,5.52568E1,-0E0,-0E0,3.0693005E2,2.4872696E1,-0E0,7.6835286E-3,-0E0,2.457E3,2.8939484E1,1.3E1,-0E0,-0E0,1.015E3,6.6E1,-0E0,1.087E3,3.4361687E-2,3.12391E2,-0E0,-0E0,1.34E2,2.957E3,-0E0,3.4005523E-2,-0E0,3.1460626E2,-0E0,9.7E1,-0E0,-0E0,2.965E3,5.720649E1,-0E0,3.0240134E2,-0E0,1.291E3,-0E0,-0E0,2.828E3,-0E0,-8.956962E-3,3.094388E2,5.199182E-3,-0E0,5.52568E1,3.7162792E-2,-0E0,-0E0,8.708717E-3,5.4276352E1,-0E0,-0E0,3.292721E-2,2.997499E2,-0E0,6.642126E1,-0E0,1.5808549E1,-0E0,1.104E3,-0E0,-1.6054934E-3,-0E0,3.9107535E-2,-0E0,3.1460626E2,-0E0,1.3008111E-2,-0E0,9.243983E-3,-0E0,1.4528264E-2,-0E0,-0E0,6.6E1,3.0981064E2,-0E0,2.971999E2,-0E0,2.9826923E2,-0E0,2.9892993E2,-0E0,9.271688E-3,-0E0,2.4213358E1,-0E0,-0E0,2.916E3,1.1186232E1,-0E0,-1E1,-0E0,-0E0,9.271688E-3,3.643331E-3,-0E0,1.9256931E1,-0E0,-5.112657E-3,-0E0,8.264641E-3,-0E0,-0E0,-2.570691E-3,-0E0,-6.055287E-3,4.1643325E-3,-0E0,-0E0,-4.4331877E-3,-0E0,3.5676875E-3,-2.1023205E-3,-0E0,-7.942608E-3,-0E0,-0E0,1.3121193E-2,-0E0,1.16713755E-2,-0E0,-5.5608586E-3],"split_indices":[11,11,10,11,2,0,2,0,2,1,1,0,11,1,0,2,2,2,2,0,10,0,4,1,3,11,1,1,0,1,1,2,0,8,0,2,0,2,2,2,0,8,0,2,4,10,2,2,3,4,2,0,3,0,0,0,0,11,4,11,1,3,8,0,0,8,4,0,10,4,0,0,4,11,4,4,0,0,3,0,11,4,0,0,2,4,0,8,0,3,4,11,0,0,3,11,0,3,8,2,0,0,11,3,0,8,0,2,0,11,0,0,3,4,0,1,0,3,0,0,3,0,0,2,0,0,4,8,0,0,0,4,0,0,8,1,0,4,0,10,0,3,0,0,0,8,0,2,0,0,0,0,0,0,0,0,11,2,0,1,0,1,0,1,0,8,0,4,0,0,3,10,0,11,0,0,8,0,0,4,0,0,0,0,0,0,0,0,0,0,0,0,0,0,0,0,0,0,0,0,0,0,0,0,0],"split_type":[0,0,0,0,0,0,0,0,0,0,0,0,0,0,0,0,0,0,0,0,0,0,0,0,0,0,0,0,0,0,0,0,0,0,0,0,0,0,0,0,0,0,0,0,0,0,0,0,0,0,0,0,0,0,0,0,0,0,0,0,0,0,0,0,0,0,0,0,0,0,0,0,0,0,0,0,0,0,0,0,0,0,0,0,0,0,0,0,0,0,0,0,0,0,0,0,0,0,0,0,0,0,0,0,0,0,0,0,0,0,0,0,0,0,0,0,0,0,0,0,0,0,0,0,0,0,0,0,0,0,0,0,0,0,0,0,0,0,0,0,0,0,0,0,0,0,0,0,0,0,0,0,0,0,0,0,0,0,0,0,0,0,0,0,0,0,0,0,0,0,0,0,0,0,0,0,0,0,0,0,0,0,0,0,0,0,0,0,0,0,0,0,0,0,0,0,0,0,0,0,0,0,0,0,0],"sum_hessian":[2.508527E3,2.3846619E3,1.23865395E2,4.0385333E2,1.9808085E3,1.3381194E0,1.22527275E2,3.3699985E2,6.6853485E1,1.3062583E3,6.745501E2,1.3010235E0,1.2122625E2,6.2149376E1,4.704109E0,7.280274E2,5.7823096E2,3.2843857E2,3.4611157E2,3.305068E1,8.8175575E1,6.3481283E0,5.5801247E1,4.619905E2,2.6603687E2,1.5659854E2,4.216324E2,3.1173227E2,1.6706306E1,2.0467554E2,1.4143604E2,2.3950819E1,9.099858E0,8.611506E1,2.0605159E0,5.3832214E1,1.9690329E0,1.2936697E2,3.3262354E2,2.6267633E2,3.3605473E0,1.55341E2,1.2575458E0,2.2220833E2,1.9942406E2,1.6551471E2,1.4621754E2,5.9305943E1,1.4536958E2,7.0308716E1,7.112732E1,2.4225483E0,2.152827E1,1.0413488E0,8.507371E1,4.41702E1,9.662013E0,5.527039E1,7.409658E1,1.7201183E2,1.6061171E2,4.8613537E1,2.1406277E2,1.8435742E0,1.5349742E2,8.337107E1,1.3883725E2,1.3836374E0,1.9804042E2,1.6401607E2,1.4986405E0,7.363709E1,7.258046E1,2.5457205E1,3.3848736E1,1.3778796E2,7.5816298E0,2.6776223E0,6.7631096E1,4.3345566E1,2.7781752E1,2.030816E1,1.22011E0,1.6544276E0,5.361596E1,6.854304E1,5.5535464E0,1.6185956E2,1.01522665E1,7.317317E1,8.743853E1,2.6835926E1,2.1777613E1,1.5454759E1,1.9860802E2,5.9168213E1,2.4202858E1,9.563713E1,4.3200123E1,1.9159422E2,6.4462037E0,2.2407281E0,1.6177533E2,6.639381E1,6.186651E0,2.3498426E1,1.9587796E0,2.987204E1,3.976697E0,1.3399872E2,3.7892356E0,3.6802986E0,6.3950798E1,2.5504011E1,2.2777402E0,1.8701397E1,1.6067636E0,3.9011265E1,1.4604694E1,3.657575E0,6.488546E1,1.5424974E0,1.6031706E2,5.4745693E1,1.8427483E1,1.3278063E1,7.416047E1,2.3754501E1,3.0814238E0,2.3514204E0,1.962566E2,5.2707657E1,6.4605575E0,4.3924503E0,9.124468E1,3.177259E1,1.142753E1,1.869202E2,4.6740313E0,1.5979628E2,1.9790609E0,6.3144142E1,3.2496653E0,2.1948526E1,1.5498989E0,2.760809E1,2.2639518E0,1.2801576E2,5.9829607E0,6.2909195E1,1.041604E0,2.4174997E1,1.3290132E0,1.5355879E1,3.3455186E0,6.1532345E0,3.2858032E1,6.0199448E1,4.6860137E0,2.8937119E1,2.5808575E1,7.038182E1,3.7786465E0,2.1560057E1,2.1944437E0,5.105231E1,1.655345E0,8.818041E1,3.0642693E0,9.417961E0,2.235463E1,1.8535867E2,1.5615226E0,1.584454E2,1.3508651E0,2.9821014E0,6.016204E1,2.6406752E1,1.2013369E0,1.2515158E2,2.8641803E0,3.1305895E1,1.5521377E0,5.8645794E1,1.553656E0,2.7155E0,2.6221619E1,5.5485168E0,6.4833305E1,1.8481045E1,3.0790126E0,2.8243432E0,4.8227966E1,7.6534963E0,8.052692E1,2.107661E1,1.278019E0,1.8086726E2,4.4914093E0,1.0367312E0,1.5740868E2,1.6207027E0,5.854134E1,1.5816019E0,1.23569984E2],"tree_param":{"num_deleted":"0","num_feature":"12","num_nodes":"205","size_leaf_vector":"1"}},{"base_weights":[-5.7871187E-1,-1.209871E-2,2.2389779E-2],"categories":[],"categories_nodes":[],"categories_segments":[],"categories_sizes":[],"default_left":[0,0,0],"id":70,"left_children":[1,-1,-1],"loss_changes":[6.1065735E1,0E0,0E0],"parents":[2147483647,0,0],"right_children":[2,-1,-1],"split_conditions":[1.5129907E1,-1.209871E-2,2.2389779E-2],"split_indices":[6,0,0],"split_type":[0,0,0],"sum_hessian":[2.227174E3,2.211094E3,1.6080187E1],"tree_param":{"num_deleted":"0","num_feature":"12","num_nodes":"3","size_leaf_vector":"1"}},{"base_weights":[1.1549592E0,1.4760588E0,-1.2477876E-2,3.016899E-2,6.645823E-1,2.3840435E-2,-0E0,-1.8054056E-4,-0E0],"categories":[],"categories_nodes":[],"categories_segments":[],"categories_sizes":[],"default_left":[0,0,0,0,0,0,0,0,0],"id":71,"left_children":[1,3,-1,-1,5,-1,7,-1,-1],"loss_changes":[1.9040996E3,2.145996E0,0E0,0E0,2.3754946E1,0E0,1.1626881E-3,0E0,0E0],"parents":[2147483647,0,0,1,1,4,4,6,6],"right_children":[2,4,-1,-1,6,-1,8,-1,-1],"split_conditions":[2.01E2,1.5784917E5,-1.2477876E-2,3.016899E-2,2.7774561E-2,2.3840435E-2,9.382039E0,-1.8054056E-4,-0E0],"split_indices":[5,7,0,0,8,0,10,0,0],"split_type":[0,0,0,0,0,0,0,0,0],"sum_hessian":[3.3338093E3,2.8256228E3,5.081864E2,2.7832961E3,4.232674E1,2.9089836E1,1.3236903E1,1.217127E1,1.0656332E0],"tree_param":{"num_deleted":"0","num_feature":"12","num_nodes":"9","size_leaf_vector":"1"}},{"base_weights":[-5.783215E-1,-1.2071482E-2,2.1455359E-2],"categories":[],"categories_nodes":[],"categories_segments":[],"categories_sizes":[],"default_left":[0,0,0],"id":72,"left_children":[1,-1,-1],"loss_changes":[5.609851E1,0E0,0E0],"parents":[2147483647,0,0],"right_children":[2,-1,-1],"split_conditions":[7.149153E1,-1.2071482E-2,2.1455359E-2],"split_indices":[9,0,0],"split_type":[0,0,0],"sum_hessian":[2.2263232E3,2.2110022E3,1.5320842E1],"tree_param":{"num_deleted":"0","num_feature":"12","num_nodes":"3","size_leaf_vector":"1"}},{"base_weights":[-5.3949744E-1],"categories":[],"categories_nodes":[],"categories_segments":[],"categories_sizes":[],"default_left":[0],"id":73,"left_children":[-1],"loss_changes":[0E0],"parents":[2147483647],"right_children":[-1],"split_conditions":[-1.0959629E-2],"split_indices":[0],"split_type":[0],"sum_hessian":[2.2451628E3],"tree_param":{"num_deleted":"0","num_feature":"12","num_nodes":"1","size_leaf_vector":"1"}},{"base_weights":[-1.3657981E-2,-3.3405325E-1,3.777532E-1,-4.521818E-1,-1.0649348E-1,1.7058694E-1,5.8843285E-1,-5.347511E-1,-3.3279827E-1,-0E0,-1.2357358E-1,-0E0,1.8964179E-1,6.1199784E-1,-0E0,-0E0,-5.382003E-1,-0E0,-3.4943992E-1,-0E0,-1.5766633E-1,-0E0,2.1286951E-1,-0E0,6.1865413E-1,-1.09670535E-2,-0E0,-3.5410526E-1,-0E0,-2.0774286E-2,-0E0,-0E0,-1.6388756E-1,8.895041E-2,-5.6827688E-3,2.2461925E-1,-0E0,6.1999613E-1,-0E0,-3.5564196E-1,-0E0,-0E0,-4.9435854E-2,-0E0,2.9875616E-2,-1.6946186E-1,-0E0,1.3222694E-1,-0E0,-0E0,-4.020055E-2,2.3680398E-1,-0E0,6.2198526E-1,-0E0,-0E0,-3.5717335E-1,-0E0,-7.447908E-2,-0E0,5.841273E-2,-0E0,-1.7292957E-1,1.5175794E-1,-0E0,-0E0,-4.9256034E-2,-0E0,2.4359185E-1,4.689467E-1,7.593186E-1,-3.6066982E-1,-0E0,-8.511213E-2,-0E0,6.771945E-2,-0E0,-0E0,-1.7612985E-1,-0E0,1.6257602E-1,-1.1960764E-3,-0E0,2.4621329E-1,-0E0,4.7710472E-1,-0E0,-0E0,1.5580963E-2,-7.399043E-3,-0E0,-0E0,-9.794913E-2,1.9230853E-3,-0E0,-3.6025597E-3,-0E0,-0E0,1.7388201E-1,-0E0,2.5126722E-1,9.7951135E-3,-0E0,-2.2221317E-3,-0E0,1.9900678E-1,-0E0,2.5424856E-1,-0E0,-0E0,4.2495904E-3,5.2037393E-3,-0E0],"categories":[],"categories_nodes":[],"categories_segments":[],"categories_sizes":[],"default_left":[0,0,0,0,0,0,0,0,0,0,0,0,0,0,0,0,0,0,0,0,0,0,0,0,0,0,0,0,0,0,0,0,0,0,0,0,0,0,0,0,0,0,0,0,0,0,0,0,0,0,0,0,0,0,0,0,0,0,0,0,0,0,0,0,0,0,0,0,0,0,0,0,0,0,0,0,0,0,0,0,0,0,0,0,0,0,0,0,0,0,0,0,0,0,0,0,0,0,0,0,0,0,0,0,0,0,0,0,0,0,0,0,0],"id":74,"left_children":[1,3,5,7,9,11,13,15,17,-1,19,-1,21,23,-1,-1,25,-1,27,29,31,33,35,-1,37,-1,-1,39,-1,41,43,-1,45,47,49,51,-1,53,-1,55,-1,-1,57,-1,59,61,-1,63,-1,-1,65,67,-1,69,-1,-1,71,-1,73,-1,75,-1,77,79,-1,-1,81,-1,83,85,87,89,-1,91,-1,93,-1,-1,95,-1,97,-1,-1,99,-1,101,-1,-1,-1,-1,-1,-1,103,-1,-1,-1,-1,-1,105,-1,107,-1,-1,-1,-1,109,-1,111,-1,-1,-1,-1,-1],"loss_changes":[3.1465518E2,3.3106766E1,4.295456E1,1.8670654E0,1.5981798E0,1.9632435E0,1.0688629E1,7.351074E-1,1.4299431E0,0E0,1.5722084E0,0E0,1.2468338E0,1.1497345E0,0E0,0E0,1.602478E-1,0E0,7.0905304E-1,3.7914045E-2,4.9423313E-1,4.6751478E-1,1.050724E0,0E0,3.4410095E-1,0E0,0E0,2.1834183E-1,0E0,1.6681132E-1,2.9449027E-2,0E0,4.5640182E-1,3.2285047E-1,4.119713E-2,5.7195663E-1,0E0,6.498108E-1,0E0,2.1325302E-1,0E0,0E0,1.8141462E-1,0E0,7.827617E-2,3.5448837E-1,0E0,2.236833E-1,0E0,0E0,1.7960228E-2,5.540867E-1,0E0,6.9358826E-1,0E0,0E0,8.973694E-2,0E0,1.0168567E-1,0E0,2.8575681E-2,0E0,